//SIDE: 20

#define FACTOR 512

Int32 Network_weights1[25600] = {
	-58,	-142,	133,	-56,	-122,	-113,	202,	41,	-18,	67,	100,	-172,	-128,	-83,	-142,	-151,	11,	-116,	72,	25,	141,	-75,	74,	-150,	6,	93,	109,	-46,	140,	-162,	37,	75,	29,	144,	-103,	-34,	-14,	159,	172,	-13,	190,	179,	212,	205,	89,	63,	219,	155,	-54,	-174,	-42,	75,	90,	62,	-358,	-182,	-94,	96,	143,	-101,	170,	122,	126,	92,	-94,	-79,	-41,	131,	-103,	-208,	-60,	58,	25,	48,	-24,	-148,	-126,	113,	216,	-18,	42,	38,	55,	189,	-24,	-53,	19,	-20,	-206,	-323,	-71,	93,	82,	-37,	-111,	-128,	-118,	186,	201,	-63,	53,	31,	-87,	290,	102,	-99,	-6,	36,	-169,	-384,	-57,	48,	108,	-49,	-151,	-45,	26,	35,	196,	-93,	62,	231,	108,	77,	81,	-22,	149,	100,	-26,	-293,	62,	91,	105,	-26,	-216,	-160,	-186,	-149,	93,	-53,	-20,	13,	62,	58,	-17,	-21,	123,	30,	-29,	-233,	9,	11,	94,	-122,	-209,	-306,	-217,	-122,	1,	-54,	66,	150,	-98,	85,	-43,	73,	117,	19,	-47,	-302,	-57,	106,	-72,	-187,	-317,	-425,	-297,	-49,	-32,	32,	21,	8,	-7,	58,	124,	118,	183,	86,	-51,	-305,	59,	65,	-51,	-284,	-355,	-260,	-219,	-113,	70,	-56,	53,	77,	128,	73,	47,	58,	180,	59,	66,	-117,	-89,	-14,	-161,	-295,	-339,	-340,	-104,	-158,	89,	72,	4,	175,	37,	131,	24,	12,	186,	101,	79,	-269,	14,	-34,	3,	-73,	-159,	-98,	127,	-70,	-64,	100,	89,	95,	-13,	67,	46,	30,	125,	-65,	-54,	-278,	-240,	29,	136,	-128,	31,	30,	111,	-84,	-23,	-70,	7,	84,	154,	33,	60,	5,	136,	109,	-20,	-331,	-139,	33,	-54,	74,	161,	184,	138,	37,	-90,	-25,	3,	79,	11,	-12,	-69,	-64,	90,	201,	-3,	-272,	-117,	-82,	-53,	37,	190,	223,	94,	-32,	-109,	-56,	84,	-16,	1,	-11,	24,	-33,	51,	87,	-83,	-401,	7,	-107,	81,	66,	262,	218,	-55,	-235,	-132,	-59,	-19,	168,	49,	-146,	35,	26,	10,	53,	-187,	-252,	-20,	191,	102,	104,	189,	262,	-35,	-70,	-44,	-50,	111,	91,	155,	-120,	-7,	117,	105,	-8,	-110,	-20,	-81,	63,	15,	118,	209,	90,	-43,	-82,	30,	-85,	83,	76,	137,	-81,	-100,	-90,	-143,	179,	-36,	-120,	193,	305,	145,	-29,	135,	158,	9,	-5,	20,	7,	35,	39,	47,	-140,	-131,	-109,	-231,	98,	83,	-118,	57,	74,	141,	32,	271,	131,	-57,	-60,	72,	5,
	35,	12,	-18,	79,	56,	76,	76,	7,	119,	75,	0,	12,	148,	17,	79,	-35,	54,	-97,	42,	-23,	-69,	-23,	-8,	62,	48,	-159,	-166,	-4,	-98,	-7,	-32,	-40,	-191,	-156,	-33,	235,	174,	7,	96,	-61,	45,	-123,	-177,	-21,	84,	81,	-57,	-37,	-38,	-98,	-270,	-178,	11,	88,	-21,	238,	150,	245,	-9,	-87,	57,	-16,	-14,	62,	-83,	114,	-50,	63,	125,	-41,	-117,	-185,	-204,	-96,	-225,	167,	179,	257,	12,	-200,	64,	72,	-40,	-7,	-154,	26,	43,	178,	111,	44,	-106,	-118,	-145,	-229,	-161,	-68,	61,	288,	21,	-171,	-8,	-53,	-1,	-340,	-100,	-50,	19,	139,	125,	148,	48,	-132,	-162,	-182,	-120,	-145,	1,	204,	236,	-22,	24,	-63,	-42,	-171,	-189,	-195,	10,	50,	108,	213,	15,	-179,	-201,	-140,	-8,	-16,	-24,	-15,	-2,	-103,	12,	27,	57,	-15,	-258,	-243,	123,	46,	68,	89,	102,	-170,	-346,	-186,	-112,	-30,	-102,	103,	67,	-12,	36,	-62,	-15,	-63,	-192,	-384,	52,	112,	114,	126,	78,	-206,	-196,	-151,	59,	46,	-166,	147,	108,	-21,	-28,	81,	-91,	-56,	-222,	-202,	-55,	47,	171,	94,	24,	-68,	-278,	39,	27,	41,	-158,	33,	196,	39,	-29,	-91,	-1,	-271,	-194,	-163,	-87,	86,	250,	152,	43,	-61,	-274,	-69,	116,	5,	-99,	-28,	327,	48,	54,	36,	72,	-311,	-207,	-177,	-62,	73,	194,	142,	102,	-120,	-264,	-117,	115,	121,	-9,	72,	123,	75,	47,	52,	-95,	-17,	-152,	-228,	-10,	139,	175,	156,	215,	-53,	-159,	-48,	136,	17,	7,	141,	61,	57,	-76,	45,	24,	-78,	-123,	-273,	-8,	50,	-9,	82,	184,	-31,	-217,	-58,	104,	-96,	59,	185,	137,	30,	-44,	-79,	-87,	-74,	-57,	-233,	-101,	-47,	-2,	121,	-28,	-96,	-26,	102,	33,	10,	182,	129,	151,	-72,	-56,	110,	-194,	-111,	40,	-124,	-263,	6,	106,	92,	-52,	-140,	-58,	72,	120,	63,	224,	219,	93,	-28,	-8,	25,	-163,	-83,	-136,	-331,	-118,	-224,	19,	188,	27,	-243,	-84,	97,	43,	166,	215,	184,	45,	142,	-35,	-160,	-125,	-110,	-264,	-310,	8,	110,	268,	68,	64,	-209,	6,	10,	78,	36,	112,	56,	53,	-53,	39,	68,	-15,	-72,	-104,	-153,	36,	88,	128,	-64,	-47,	-67,	-169,	-131,	19,	-114,	0,	-38,	-47,	-12,	75,	-102,	-40,	-39,	-20,	77,	18,	25,	62,	41,	22,	28,	-248,	-290,	-255,	-149,	-106,	-1,	-23,	28,
	-203,	-132,	-111,	-84,	-70,	21,	135,	142,	13,	121,	126,	-15,	139,	47,	-85,	-212,	88,	-101,	-18,	-48,	-53,	-80,	-207,	-117,	-84,	16,	65,	-144,	-160,	-10,	-188,	104,	19,	100,	-36,	-41,	-35,	117,	9,	40,	119,	-118,	-79,	174,	132,	110,	-50,	-197,	-214,	-118,	-314,	-78,	225,	92,	139,	147,	-31,	141,	28,	-48,	87,	-115,	-19,	106,	215,	55,	-19,	-143,	-238,	-220,	-130,	-192,	-72,	-172,	57,	27,	-2,	32,	182,	-48,	99,	-104,	-55,	289,	137,	184,	108,	-61,	-149,	-244,	-289,	-103,	-28,	60,	124,	114,	49,	-128,	59,	-31,	-6,	-91,	148,	312,	175,	51,	130,	69,	-130,	-316,	-287,	-105,	-27,	77,	79,	207,	135,	-78,	19,	-77,	61,	-98,	142,	155,	253,	109,	51,	76,	-133,	-169,	-152,	23,	123,	105,	156,	112,	202,	-155,	-50,	-132,	-58,	-32,	122,	118,	15,	65,	142,	128,	-201,	-279,	-198,	-48,	250,	141,	127,	128,	131,	-227,	-73,	-37,	24,	28,	-125,	-104,	30,	174,	135,	133,	-74,	-319,	-123,	25,	224,	66,	14,	49,	6,	-128,	76,	-36,	-87,	-21,	-126,	-56,	84,	86,	153,	173,	39,	-161,	-77,	59,	104,	-55,	-62,	-181,	-31,	-91,	-32,	-31,	-27,	47,	-102,	-111,	-9,	42,	82,	68,	80,	-71,	-137,	-29,	66,	-224,	-210,	-137,	-173,	-249,	-184,	-143,	23,	70,	-63,	-131,	18,	-25,	99,	209,	255,	-59,	-157,	-64,	-38,	-181,	-117,	-77,	-172,	-184,	-147,	-54,	-29,	75,	11,	-69,	-103,	-43,	40,	138,	251,	-13,	-191,	-207,	-160,	-120,	-126,	-95,	3,	-67,	-15,	-34,	17,	160,	68,	-40,	52,	6,	62,	86,	96,	51,	-101,	-232,	-181,	-155,	-183,	28,	59,	32,	1,	100,	-47,	228,	155,	-76,	8,	-67,	124,	-2,	75,	69,	25,	-137,	-122,	-116,	28,	24,	21,	52,	58,	15,	96,	55,	146,	101,	189,	-8,	223,	191,	17,	-69,	-28,	36,	-157,	-54,	-155,	-107,	291,	121,	49,	4,	32,	197,	338,	174,	115,	184,	196,	172,	-57,	-5,	-29,	-97,	-257,	-283,	-137,	133,	267,	211,	34,	-41,	89,	47,	67,	178,	132,	140,	262,	15,	132,	47,	126,	-69,	-208,	-124,	22,	33,	163,	146,	153,	22,	70,	0,	-110,	89,	-184,	223,	-11,	126,	-20,	109,	182,	222,	-49,	-113,	29,	121,	144,	174,	80,	34,	96,	-114,	-266,	-107,	-110,	117,	-152,	-76,	-131,	23,	49,	69,	47,	48,	256,	122,	150,	248,	-7,	133,
	-80,	33,	-73,	172,	7,	12,	57,	-11,	76,	164,	-3,	25,	-96,	26,	43,	110,	15,	232,	111,	24,	3,	51,	42,	-99,	-6,	-7,	-95,	26,	166,	93,	112,	212,	164,	-22,	-19,	-74,	-50,	-44,	60,	-58,	90,	88,	101,	-63,	-184,	-258,	-129,	-196,	-96,	91,	20,	162,	162,	94,	102,	164,	113,	22,	-1,	4,	21,	25,	155,	40,	-190,	-86,	-60,	138,	94,	25,	27,	26,	150,	60,	35,	81,	44,	-16,	-31,	-91,	-24,	-45,	55,	-137,	-71,	-146,	11,	182,	144,	218,	93,	74,	98,	153,	78,	205,	104,	-35,	-30,	-5,	8,	23,	-180,	-88,	33,	78,	57,	121,	197,	134,	126,	200,	216,	168,	-9,	-26,	-13,	32,	-58,	-45,	87,	-80,	-45,	-139,	49,	142,	36,	104,	206,	122,	116,	101,	183,	202,	-10,	-62,	43,	-118,	-44,	-39,	-35,	-105,	-199,	-269,	49,	-8,	114,	118,	107,	44,	-30,	-22,	157,	126,	-12,	77,	-10,	-191,	-83,	37,	-24,	-85,	-215,	-105,	-44,	57,	27,	39,	6,	72,	-47,	-206,	-52,	-145,	-134,	-73,	-48,	-283,	-219,	38,	-48,	-31,	-59,	-149,	-171,	-49,	49,	-29,	33,	-40,	13,	-38,	-89,	-237,	-179,	-338,	-320,	-253,	-148,	44,	-39,	-69,	-153,	-219,	-121,	-164,	-131,	-70,	-99,	-31,	-48,	16,	-82,	-128,	-195,	-197,	-393,	-294,	-97,	154,	-21,	-81,	-170,	-165,	-152,	-239,	-197,	-151,	-38,	12,	-83,	105,	10,	-153,	-138,	-258,	-425,	-295,	-126,	-26,	21,	-70,	-182,	-77,	-270,	-220,	-131,	-69,	110,	52,	-37,	75,	-1,	-72,	-152,	-164,	-203,	-255,	160,	-177,	-76,	-61,	-181,	-178,	-200,	-215,	-178,	-27,	80,	175,	146,	51,	-39,	-147,	-164,	-17,	-117,	5,	5,	-73,	32,	-40,	-159,	-410,	-344,	-205,	-136,	-26,	66,	211,	206,	77,	-139,	-140,	-79,	-91,	-122,	-44,	-6,	-3,	56,	-43,	-181,	-202,	-223,	-164,	-15,	-23,	17,	117,	124,	115,	-54,	36,	-27,	-28,	95,	65,	-17,	-53,	-86,	-38,	-83,	-202,	-256,	-162,	-62,	74,	106,	238,	277,	260,	126,	-31,	140,	96,	84,	79,	-61,	-78,	-2,	-22,	-95,	-89,	-284,	-318,	-254,	-216,	105,	234,	375,	345,	257,	134,	172,	14,	132,	102,	22,	19,	23,	103,	-124,	-38,	-288,	-175,	-322,	-375,	-23,	75,	299,	172,	126,	19,	219,	192,	282,	190,	76,	-33,	7,	131,	-1,	44,	23,	-102,	-199,	-298,	-157,	89,	363,	192,	202,	72,	193,	415,	235,	94,	45,	-24,
	165,	58,	175,	196,	-63,	15,	-9,	62,	83,	36,	36,	-53,	22,	65,	222,	188,	60,	155,	55,	-31,	56,	107,	-4,	165,	31,	-161,	-139,	-230,	-161,	19,	-175,	-297,	-226,	-110,	113,	32,	-40,	-52,	-224,	-138,	152,	2,	140,	76,	-115,	-43,	-296,	-259,	-177,	-5,	-59,	-153,	103,	125,	160,	-12,	-17,	131,	58,	-2,	-35,	-2,	93,	-202,	-152,	-4,	-159,	-131,	-125,	31,	18,	-58,	150,	45,	-78,	-167,	-35,	194,	303,	-129,	33,	16,	55,	-114,	-132,	-63,	-215,	-50,	-5,	182,	85,	22,	36,	100,	-100,	-122,	55,	295,	95,	20,	29,	60,	198,	-88,	-15,	-18,	-73,	-21,	-22,	42,	16,	-34,	-81,	19,	38,	-177,	98,	275,	233,	-44,	-26,	70,	73,	32,	-66,	3,	73,	-17,	11,	107,	118,	-38,	-86,	-14,	6,	-114,	-122,	-19,	349,	9,	-27,	-57,	10,	19,	-1,	-38,	176,	56,	59,	19,	-81,	-136,	-169,	-179,	-99,	-176,	-274,	-149,	111,	46,	35,	13,	27,	121,	-11,	48,	88,	20,	-18,	-120,	10,	-190,	-257,	-275,	-269,	-241,	-387,	-198,	1,	64,	137,	-174,	98,	18,	80,	110,	21,	-42,	2,	12,	52,	-56,	-154,	-216,	-176,	-164,	-260,	-207,	-67,	5,	-66,	21,	-53,	122,	75,	54,	-2,	-140,	-83,	89,	180,	88,	69,	-66,	-86,	9,	-148,	-158,	257,	66,	-84,	-38,	-59,	122,	83,	21,	14,	-18,	19,	137,	240,	160,	33,	-42,	-29,	122,	62,	56,	-19,	39,	27,	-103,	-102,	71,	92,	111,	75,	148,	16,	13,	247,	248,	290,	136,	99,	82,	216,	296,	32,	-136,	92,	-44,	-297,	-185,	-63,	87,	57,	58,	125,	44,	79,	147,	164,	186,	74,	88,	144,	197,	-15,	-203,	-12,	-128,	-356,	-306,	-161,	-34,	-121,	38,	-40,	56,	-8,	-122,	9,	148,	247,	131,	-3,	230,	99,	8,	4,	-11,	-352,	-282,	-207,	-141,	10,	-87,	50,	-106,	-105,	-17,	92,	80,	166,	125,	26,	128,	42,	116,	-44,	29,	-329,	-99,	-228,	-90,	-3,	26,	113,	3,	-35,	-19,	-59,	42,	-16,	-102,	-83,	92,	8,	49,	-10,	59,	-6,	-85,	-191,	109,	-175,	-98,	-44,	-192,	-91,	-74,	-66,	19,	63,	-16,	-101,	-26,	-11,	0,	-31,	-33,	98,	66,	74,	31,	134,	-11,	-55,	-330,	-54,	-249,	-165,	-199,	-74,	-88,	-20,	-11,	27,	-115,	-25,	-53,	125,	54,	35,	125,	101,	109,	-178,	-48,	-50,	-77,	-167,	-127,	-92,	-7,	-23,	-5,	-27,	-107,
	-60,	-88,	138,	161,	85,	101,	110,	54,	79,	87,	88,	77,	166,	83,	129,	-43,	-27,	-30,	-13,	-265,	-123,	-90,	86,	-199,	39,	137,	197,	184,	79,	65,	187,	36,	100,	-207,	79,	133,	74,	4,	29,	-103,	-114,	-109,	63,	-9,	202,	17,	68,	29,	-202,	35,	-3,	42,	-72,	-23,	36,	247,	36,	-70,	-64,	-223,	4,	-4,	37,	294,	212,	171,	22,	-40,	-100,	-13,	84,	54,	-43,	-135,	-180,	88,	-52,	-155,	-133,	-55,	-11,	-152,	88,	236,	87,	-83,	83,	0,	87,	55,	3,	86,	178,	31,	-18,	-191,	128,	-111,	-221,	-248,	49,	-83,	-90,	-49,	3,	83,	136,	107,	71,	19,	-70,	-10,	11,	202,	162,	138,	287,	-63,	-189,	-166,	-16,	47,	-197,	-184,	-68,	45,	118,	138,	41,	6,	-40,	-66,	52,	117,	164,	43,	91,	-28,	-160,	-210,	-57,	-21,	-293,	-22,	36,	40,	-26,	51,	-8,	135,	-73,	-144,	-73,	170,	160,	76,	80,	200,	-30,	-218,	-28,	-75,	-215,	-192,	-60,	-72,	-15,	-8,	25,	69,	-37,	-261,	-515,	-24,	182,	311,	171,	133,	58,	-181,	-66,	10,	-183,	-124,	94,	-65,	-22,	-90,	118,	124,	-43,	-307,	-628,	-136,	48,	174,	161,	70,	171,	-131,	78,	-38,	-235,	-138,	14,	11,	-71,	116,	124,	154,	-58,	-158,	-443,	-229,	-153,	60,	270,	117,	123,	-81,	-9,	-127,	-119,	-137,	-10,	-17,	28,	-11,	143,	148,	14,	-62,	-275,	-292,	-178,	-36,	233,	198,	268,	-75,	-8,	-32,	-29,	45,	57,	-19,	-4,	23,	95,	150,	258,	110,	-41,	-167,	-272,	-54,	168,	101,	41,	191,	-17,	-61,	-33,	20,	40,	9,	42,	-18,	-123,	32,	168,	102,	-29,	66,	-72,	-99,	-18,	141,	33,	127,	4,	-133,	19,	158,	36,	14,	34,	17,	-79,	3,	-43,	-17,	-7,	-19,	-39,	-76,	73,	121,	92,	134,	-29,	-56,	-45,	95,	42,	-4,	-37,	-20,	-84,	-187,	6,	49,	16,	42,	-132,	103,	46,	102,	108,	-39,	24,	-153,	-143,	172,	174,	2,	-91,	-121,	-91,	-146,	-119,	-120,	-17,	51,	-26,	134,	150,	202,	65,	3,	92,	-96,	-186,	10,	278,	60,	-55,	-177,	-216,	-191,	21,	-103,	-50,	-2,	10,	137,	136,	127,	260,	-9,	50,	7,	4,	30,	317,	-7,	-59,	-18,	135,	123,	31,	-4,	45,	157,	-80,	39,	-10,	-27,	268,	18,	36,	-105,	-55,	70,	56,	90,	107,	110,	98,	-25,	-167,	33,	-57,	-126,	-147,	27,	-235,	-14,	233,	87,
	156,	-20,	7,	117,	93,	131,	-87,	17,	136,	24,	80,	-5,	-2,	35,	-18,	18,	-37,	78,	-63,	8,	155,	-44,	43,	192,	105,	163,	81,	105,	-36,	-37,	16,	28,	-144,	-139,	-41,	38,	79,	-25,	35,	2,	56,	46,	29,	114,	-4,	-60,	-80,	-125,	-175,	61,	-172,	-107,	15,	58,	38,	-125,	7,	120,	-86,	107,	146,	-29,	173,	-93,	-125,	-100,	-138,	-91,	-128,	-65,	63,	197,	14,	-184,	-117,	-30,	219,	27,	-133,	76,	-67,	-53,	167,	-260,	-187,	-74,	-157,	-62,	-185,	-58,	66,	57,	115,	-150,	-152,	-27,	185,	-47,	-156,	-103,	-70,	-55,	57,	-115,	-262,	-348,	-177,	-88,	-140,	-15,	-19,	155,	18,	-115,	-131,	-93,	-21,	-82,	-196,	-188,	-52,	28,	-42,	-157,	-439,	-371,	-255,	-179,	-192,	-76,	129,	92,	4,	-90,	-181,	-49,	-51,	-57,	-196,	-138,	-42,	-40,	-156,	-309,	-358,	-398,	4,	-38,	-113,	23,	71,	111,	107,	18,	-105,	-145,	-146,	-67,	-361,	-208,	4,	-16,	-90,	-293,	38,	-229,	-9,	-20,	75,	98,	135,	57,	233,	31,	-79,	-51,	-100,	-172,	-197,	-286,	-9,	-126,	35,	-245,	2,	-166,	-94,	-3,	91,	26,	1,	23,	72,	97,	21,	43,	-89,	-22,	-36,	-142,	-57,	-51,	-111,	-263,	3,	-41,	-99,	-29,	68,	-11,	-62,	-10,	68,	73,	116,	46,	-34,	-19,	-27,	-101,	-30,	23,	-81,	-259,	75,	-77,	-156,	-7,	28,	3,	-81,	-103,	-29,	35,	175,	189,	25,	12,	-62,	-149,	-143,	-29,	-20,	-306,	61,	-136,	-191,	-19,	9,	-30,	21,	-25,	112,	165,	159,	182,	246,	128,	-87,	-270,	14,	-100,	-58,	-217,	-80,	-84,	-144,	-56,	-19,	-33,	-31,	12,	53,	246,	174,	175,	167,	159,	-87,	-166,	-41,	-4,	-130,	-242,	48,	-167,	-41,	-98,	-142,	-42,	50,	22,	73,	29,	94,	102,	279,	80,	-155,	-277,	-122,	-164,	-263,	-107,	30,	2,	19,	-48,	-164,	48,	104,	206,	185,	188,	-1,	132,	289,	63,	-49,	-202,	-90,	57,	-76,	-11,	-175,	-163,	-21,	-86,	-212,	55,	202,	10,	104,	115,	-57,	101,	275,	129,	112,	-57,	-59,	-83,	-126,	25,	-172,	-218,	60,	-38,	8,	95,	48,	-148,	10,	-7,	-219,	83,	261,	80,	-119,	-182,	69,	-1,	-23,	24,	24,	-70,	185,	30,	130,	-34,	-267,	-342,	-337,	-91,	-8,	25,	82,	126,	-87,	-159,	145,	-11,	177,	-4,	-37,	49,	166,	180,	-91,	-90,	-257,	-292,	-404,	-242,	111,	-18,	96,	-78,	-115,	-236,
	-82,	-91,	-184,	-49,	67,	62,	-13,	-62,	27,	50,	-91,	-144,	-9,	-137,	132,	244,	-19,	56,	68,	-54,	40,	-51,	-125,	65,	117,	-223,	-86,	-22,	-108,	-56,	-122,	-85,	-129,	-42,	42,	107,	85,	5,	-213,	-12,	-53,	-85,	-178,	90,	40,	-49,	177,	80,	69,	-127,	-257,	-87,	-102,	-120,	13,	134,	-41,	-10,	7,	38,	-55,	32,	-162,	52,	68,	111,	-52,	13,	-63,	-132,	-196,	-317,	-165,	-106,	-25,	77,	51,	-15,	12,	-18,	32,	-41,	-3,	241,	88,	-70,	-84,	-37,	-20,	-112,	-184,	-77,	-51,	-83,	31,	-113,	-98,	186,	42,	34,	-63,	9,	95,	113,	74,	50,	26,	62,	7,	13,	-47,	-132,	-118,	-70,	-86,	-4,	-105,	-66,	-105,	-36,	59,	101,	128,	237,	32,	17,	-34,	24,	-60,	-28,	-142,	-64,	-6,	-139,	-71,	-43,	-133,	-199,	-122,	130,	58,	9,	136,	348,	113,	105,	-35,	22,	27,	121,	43,	10,	12,	-36,	-13,	-59,	-160,	-190,	-139,	53,	-8,	133,	249,	187,	141,	43,	123,	34,	84,	14,	179,	156,	209,	18,	50,	41,	-88,	-22,	54,	61,	-35,	-45,	228,	297,	142,	-15,	110,	97,	62,	100,	73,	50,	22,	112,	178,	146,	80,	119,	323,	-21,	17,	68,	33,	296,	223,	-51,	54,	61,	116,	29,	52,	30,	134,	143,	80,	180,	205,	290,	362,	28,	7,	-46,	224,	235,	186,	88,	107,	190,	51,	96,	52,	51,	103,	258,	253,	270,	271,	482,	363,	-10,	54,	59,	134,	158,	127,	125,	146,	146,	92,	83,	136,	-109,	117,	195,	263,	330,	270,	472,	-50,	78,	-102,	29,	28,	45,	103,	99,	127,	81,	-36,	-3,	61,	13,	-64,	103,	175,	256,	325,	43,	-58,	99,	-77,	80,	-93,	38,	191,	121,	122,	32,	-61,	-35,	-120,	-41,	-134,	-138,	92,	215,	210,	-17,	-170,	24,	-85,	59,	31,	79,	-3,	26,	-102,	-33,	10,	-15,	-34,	-95,	-65,	2,	-24,	120,	2,	15,	-119,	100,	-59,	50,	10,	-33,	88,	-46,	-23,	-129,	-161,	-97,	-31,	-29,	-70,	-57,	-56,	-63,	134,	-62,	-29,	-73,	-123,	-28,	-174,	-55,	49,	-194,	-97,	-25,	11,	-47,	-135,	-110,	-130,	-160,	-13,	29,	-71,	-20,	-36,	7,	-1,	-103,	-320,	-100,	130,	152,	16,	-4,	-29,	-186,	-169,	37,	33,	-127,	-58,	-10,	-75,	-87,	-61,	-168,	-80,	-53,	-188,	-41,	-73,	59,	-9,	-44,	-127,	-99,	-175,	242,	-73,	-44,	-70,	-172,	-75,	-334,	-158,	-131,
	-115,	-101,	25,	201,	47,	46,	52,	-16,	54,	9,	-21,	-57,	79,	117,	-24,	27,	-3,	7,	201,	-26,	86,	9,	-162,	-94,	-119,	209,	91,	-40,	92,	98,	-21,	30,	53,	-47,	-77,	-219,	10,	-53,	151,	-11,	15,	-27,	-49,	313,	93,	198,	185,	41,	79,	41,	178,	261,	-44,	-66,	-33,	-181,	-52,	-77,	-44,	-152,	-105,	-86,	148,	316,	193,	-75,	62,	133,	25,	200,	234,	208,	56,	-116,	-300,	-227,	-155,	-52,	-8,	-64,	47,	-165,	246,	192,	74,	-225,	-91,	49,	108,	111,	188,	48,	29,	-95,	-235,	-137,	-240,	-127,	-23,	-54,	-18,	-121,	-36,	274,	97,	6,	12,	205,	88,	169,	116,	3,	45,	-66,	-28,	-334,	-249,	-151,	-204,	-44,	71,	-214,	-70,	183,	73,	-64,	39,	140,	144,	193,	173,	-5,	-67,	-56,	-85,	-158,	-301,	-194,	-128,	36,	-68,	-186,	-64,	113,	-1,	-77,	-64,	36,	32,	202,	40,	-18,	-154,	-37,	-177,	-231,	-283,	-172,	-163,	-110,	46,	-126,	-265,	62,	-34,	-10,	0,	5,	51,	62,	146,	-45,	-124,	-245,	-276,	-334,	-287,	-230,	-6,	-13,	-80,	-154,	-226,	-21,	56,	24,	2,	39,	41,	165,	159,	-113,	-206,	-102,	-330,	-182,	-284,	-277,	-171,	-21,	-62,	-242,	-177,	10,	25,	6,	44,	76,	-40,	156,	93,	-58,	-231,	-202,	-217,	6,	-155,	-337,	-134,	-8,	94,	-125,	-215,	33,	-65,	115,	109,	36,	-41,	84,	-101,	-215,	-162,	-130,	-236,	-1,	-145,	-343,	0,	40,	-24,	-69,	-151,	83,	32,	91,	237,	122,	159,	214,	-131,	-256,	-165,	-99,	-236,	-121,	-99,	-136,	-61,	-15,	-16,	-68,	-102,	72,	53,	22,	70,	254,	127,	152,	104,	-99,	-65,	-18,	-59,	-51,	-91,	-23,	-79,	-44,	44,	-107,	-78,	88,	-112,	-65,	30,	169,	232,	227,	-36,	-72,	-78,	-31,	-132,	-200,	-125,	-58,	-180,	4,	68,	-153,	202,	19,	-31,	40,	185,	171,	70,	148,	214,	-72,	-18,	-94,	-144,	-91,	-148,	-72,	-250,	-18,	43,	47,	26,	112,	-132,	-110,	129,	164,	121,	151,	141,	181,	-36,	-125,	-238,	-1,	28,	-183,	-199,	-175,	196,	-19,	-2,	117,	104,	-34,	-70,	133,	28,	49,	99,	193,	29,	151,	13,	-11,	-101,	-56,	-113,	-145,	75,	82,	69,	165,	-25,	-115,	-71,	98,	266,	227,	328,	144,	184,	107,	-113,	-99,	23,	-124,	-2,	-83,	89,	78,	-31,	158,	70,	132,	-97,	244,	363,	333,	247,	155,	320,	69,	64,	-6,	-193,	-50,	42,	-61,
	93,	116,	118,	36,	19,	82,	-127,	-118,	28,	-187,	-60,	74,	-32,	-56,	89,	134,	-24,	-112,	77,	-150,	46,	85,	51,	-18,	75,	-52,	-109,	-101,	-223,	-38,	-59,	-103,	-112,	-111,	217,	112,	26,	-49,	46,	-120,	-81,	7,	38,	-171,	34,	-118,	-172,	-69,	57,	-52,	-84,	-164,	11,	88,	35,	6,	-10,	-69,	-52,	-120,	66,	-27,	-68,	-153,	6,	55,	-90,	-52,	-59,	-191,	-22,	143,	213,	249,	89,	-99,	-93,	-83,	-12,	-101,	4,	-116,	-117,	-169,	-134,	101,	68,	51,	-50,	-142,	-122,	124,	106,	133,	27,	-119,	-183,	-269,	-132,	-56,	-76,	26,	-158,	-339,	80,	169,	91,	-13,	72,	-172,	1,	79,	-22,	182,	17,	-86,	-214,	-294,	-117,	-4,	-56,	-85,	-183,	-180,	-95,	86,	-36,	-31,	-76,	-252,	21,	231,	181,	184,	29,	94,	-221,	-165,	-121,	55,	27,	-17,	-289,	-191,	-128,	38,	23,	67,	49,	-171,	-115,	126,	78,	34,	89,	-66,	52,	-228,	-61,	4,	43,	-64,	-30,	-123,	6,	-38,	13,	-70,	-128,	-293,	-92,	14,	24,	119,	-24,	-159,	-209,	-193,	-43,	70,	34,	33,	-98,	-47,	-95,	-23,	74,	10,	-202,	-300,	-48,	-69,	83,	25,	-86,	-235,	-209,	-262,	-42,	-28,	-56,	4,	-82,	12,	-94,	-50,	112,	-28,	-220,	-306,	-112,	-17,	144,	-15,	-63,	-192,	-211,	-155,	71,	-40,	-60,	-18,	-139,	33,	-3,	64,	78,	-7,	-219,	-325,	-30,	92,	168,	68,	4,	-115,	-136,	-145,	154,	-62,	119,	-98,	-187,	75,	51,	49,	6,	-54,	-23,	-380,	-67,	169,	100,	102,	119,	-39,	-18,	-73,	243,	126,	36,	7,	23,	-97,	77,	67,	18,	80,	-111,	-384,	-28,	199,	165,	91,	12,	-8,	-79,	26,	114,	248,	-36,	-81,	-257,	-98,	140,	-24,	-14,	50,	-148,	-341,	-101,	135,	190,	1,	196,	-93,	-99,	166,	189,	248,	-80,	-79,	-189,	-231,	7,	121,	89,	134,	-49,	-423,	-219,	197,	214,	104,	-1,	-244,	25,	81,	94,	243,	-152,	-26,	-94,	-65,	104,	-40,	58,	87,	-86,	-464,	-360,	67,	152,	79,	-59,	-290,	59,	-11,	140,	175,	-39,	-97,	-38,	70,	-170,	35,	-29,	216,	-149,	-167,	-292,	-86,	248,	91,	-153,	-154,	50,	143,	149,	243,	47,	-55,	-120,	124,	-69,	185,	35,	16,	-117,	-173,	-327,	21,	109,	242,	31,	42,	141,	183,	219,	226,	96,	43,	26,	212,	-85,	-96,	55,	-10,	-212,	-259,	-204,	-112,	-18,	-15,	-71,	-48,	127,	309,	100,	118,
	179,	9,	22,	39,	-69,	36,	1,	29,	-13,	53,	39,	62,	-86,	-137,	-242,	-47,	38,	-175,	-14,	217,	25,	33,	-84,	-137,	-75,	-92,	-171,	-273,	-31,	-69,	-28,	17,	-110,	-30,	-85,	-184,	-65,	-16,	156,	265,	37,	40,	-6,	-173,	182,	157,	-27,	15,	94,	110,	66,	65,	70,	24,	89,	108,	-59,	90,	105,	277,	-25,	-226,	-40,	-172,	-267,	-92,	57,	66,	162,	60,	106,	104,	-29,	-158,	-58,	-46,	-120,	-15,	90,	271,	-21,	-97,	-75,	23,	-109,	9,	-25,	220,	167,	-21,	7,	55,	83,	-20,	6,	-315,	-28,	-31,	62,	220,	32,	-123,	-130,	-38,	77,	124,	110,	120,	128,	150,	-16,	-4,	-66,	-39,	0,	-230,	-52,	-93,	74,	252,	-77,	-246,	-225,	-55,	77,	-7,	-7,	162,	202,	43,	-120,	18,	16,	-192,	69,	-132,	-133,	-139,	-128,	102,	-60,	-146,	-238,	-73,	-20,	42,	28,	99,	125,	-22,	-116,	13,	2,	111,	-37,	-318,	-238,	-208,	-149,	143,	0,	-69,	-191,	-64,	69,	-54,	109,	77,	135,	39,	-203,	-78,	-29,	100,	-26,	-159,	-200,	-163,	-96,	178,	-91,	-129,	-62,	-102,	-48,	-76,	-117,	105,	52,	50,	-210,	-85,	43,	68,	-75,	-285,	-242,	-274,	-188,	155,	-44,	-170,	-48,	-135,	-39,	-145,	-66,	147,	186,	-59,	-118,	-121,	-61,	67,	-10,	-277,	-313,	-121,	-126,	98,	7,	25,	-80,	-140,	-42,	-46,	51,	119,	153,	69,	-146,	-23,	-1,	35,	19,	-239,	-240,	-151,	24,	228,	-2,	-43,	-50,	-100,	37,	-81,	41,	103,	205,	155,	-111,	-215,	-42,	-103,	-209,	-205,	-26,	-125,	-38,	86,	47,	-56,	4,	23,	-91,	68,	16,	138,	128,	77,	-123,	-282,	-226,	-243,	-195,	-333,	-107,	64,	105,	241,	-79,	-82,	53,	216,	164,	182,	184,	69,	167,	56,	-142,	5,	-46,	-194,	-219,	-44,	160,	69,	-21,	9,	-125,	-43,	10,	192,	187,	223,	142,	243,	105,	-36,	-81,	-9,	-158,	-100,	-154,	11,	133,	80,	-30,	97,	-71,	-10,	-103,	84,	31,	165,	151,	121,	132,	15,	-64,	28,	36,	16,	-17,	153,	108,	-25,	-48,	70,	-138,	2,	-96,	53,	-143,	-51,	200,	128,	142,	-7,	-84,	-4,	89,	28,	47,	123,	97,	40,	69,	8,	75,	1,	-32,	67,	-297,	-74,	-103,	89,	82,	-226,	-96,	-198,	28,	-150,	-61,	8,	-83,	-70,	-141,	-66,	127,	58,	3,	81,	123,	68,	7,	108,	-271,	-107,	-244,	-177,	-84,	-92,	-198,	-120,	-103,	-223,	-199,	-35,
	-67,	61,	-23,	-86,	-23,	25,	111,	-7,	58,	41,	43,	1,	101,	-175,	-24,	132,	58,	192,	47,	-141,	-10,	5,	-71,	57,	81,	144,	203,	-80,	-181,	-207,	-150,	-169,	-91,	86,	101,	64,	-26,	3,	3,	-105,	9,	-114,	14,	342,	148,	-30,	149,	27,	-85,	-122,	-189,	-266,	-94,	-56,	2,	-32,	-110,	78,	-29,	-138,	33,	9,	131,	288,	186,	-53,	-53,	-118,	-236,	-213,	-174,	-113,	-86,	-15,	52,	-21,	18,	-79,	49,	-166,	93,	-21,	120,	337,	-68,	148,	42,	-55,	39,	-118,	-153,	-201,	-181,	-18,	74,	22,	15,	-27,	9,	-155,	-75,	45,	124,	115,	-11,	6,	103,	-107,	-47,	-100,	-82,	-94,	-102,	-69,	42,	-65,	-85,	-76,	-167,	-68,	11,	10,	207,	73,	48,	-11,	-29,	-23,	5,	-33,	-7,	-137,	-70,	-27,	-64,	37,	85,	46,	44,	15,	18,	-5,	195,	80,	-14,	138,	-19,	-39,	-33,	-5,	12,	-61,	44,	21,	10,	-9,	12,	-70,	-13,	34,	36,	-17,	4,	5,	133,	116,	92,	107,	82,	109,	92,	80,	147,	220,	179,	50,	53,	-69,	165,	28,	24,	-116,	-91,	-91,	36,	99,	138,	301,	163,	212,	243,	183,	254,	142,	201,	198,	27,	-60,	-35,	-78,	52,	-3,	-89,	28,	22,	59,	103,	155,	206,	171,	266,	168,	203,	69,	131,	114,	90,	-116,	-52,	-105,	63,	2,	-97,	-104,	-19,	45,	110,	82,	218,	190,	105,	164,	162,	129,	214,	108,	79,	2,	-19,	14,	-107,	22,	6,	-75,	-39,	-27,	45,	22,	19,	109,	94,	-21,	-90,	11,	145,	118,	68,	200,	73,	-8,	-27,	71,	60,	87,	28,	48,	-55,	-114,	-182,	-56,	-126,	-122,	-111,	-27,	-104,	156,	66,	236,	112,	8,	-20,	5,	123,	66,	88,	105,	30,	-75,	-42,	-156,	-140,	-143,	-140,	-205,	-116,	-11,	42,	46,	86,	-123,	12,	126,	183,	123,	108,	104,	22,	-11,	-43,	-61,	-191,	-135,	-297,	-91,	-8,	-42,	44,	183,	156,	-15,	-3,	72,	303,	127,	295,	166,	15,	-166,	-198,	-116,	-140,	-253,	-159,	-364,	-218,	-60,	72,	178,	89,	-54,	14,	-5,	139,	272,	170,	125,	128,	5,	-144,	-212,	-258,	-413,	-247,	-152,	-52,	21,	143,	167,	51,	-48,	-39,	-67,	14,	-31,	160,	277,	87,	-108,	-368,	-195,	-205,	-112,	-136,	17,	-14,	65,	-14,	112,	89,	-102,	106,	-53,	100,	-100,	-86,	93,	19,	-148,	-213,	-25,	-103,	-68,	-196,	24,	123,	96,	141,	162,	64,	-21,
	197,	93,	188,	77,	-34,	4,	-49,	35,	-92,	18,	-78,	-103,	-98,	-18,	98,	9,	-16,	12,	25,	-99,	132,	47,	82,	-119,	7,	122,	-5,	-44,	116,	-51,	80,	51,	40,	32,	179,	-8,	62,	-32,	-29,	-91,	95,	57,	53,	42,	124,	-102,	-245,	76,	25,	6,	218,	125,	56,	84,	203,	32,	-52,	-134,	-109,	-128,	19,	5,	-10,	5,	61,	8,	-74,	-24,	122,	124,	156,	248,	155,	184,	-30,	123,	-47,	-45,	-122,	-141,	7,	-33,	-4,	73,	23,	-163,	-103,	-80,	84,	89,	82,	127,	173,	23,	-47,	-43,	-125,	-57,	-181,	-205,	17,	67,	-38,	-172,	-146,	-76,	-7,	-14,	-107,	-92,	-32,	170,	144,	53,	20,	94,	-60,	13,	15,	-233,	51,	66,	-70,	-195,	-161,	-92,	7,	-47,	7,	76,	88,	119,	89,	-9,	-101,	11,	-73,	-20,	-109,	-239,	-88,	-73,	-76,	-142,	-108,	39,	24,	-66,	-174,	-116,	16,	-7,	42,	5,	31,	-11,	-74,	-104,	-119,	-273,	-69,	51,	-95,	-203,	-75,	-126,	-91,	-174,	-188,	-160,	-107,	107,	21,	-60,	25,	-14,	-123,	-147,	-265,	-177,	-94,	-98,	-20,	-99,	-87,	-111,	25,	-169,	-88,	-170,	-56,	195,	67,	41,	59,	55,	-59,	-152,	-292,	-162,	-56,	-50,	14,	-58,	65,	-227,	-195,	-151,	-92,	35,	112,	128,	276,	70,	60,	61,	-23,	-162,	-152,	-207,	-41,	-154,	56,	-54,	-62,	-205,	-270,	-52,	-34,	178,	247,	230,	155,	97,	27,	-145,	-127,	-351,	-303,	-230,	-42,	40,	-18,	-14,	-27,	-185,	-130,	-141,	-79,	-5,	133,	294,	214,	107,	35,	44,	-186,	-276,	-217,	-326,	-119,	31,	91,	-88,	-18,	-225,	-105,	-94,	18,	-5,	4,	6,	180,	55,	159,	56,	74,	-155,	-108,	-63,	100,	-65,	61,	-211,	-124,	-134,	-33,	-118,	3,	-131,	-52,	35,	91,	194,	202,	160,	59,	-34,	-29,	26,	27,	-96,	-103,	105,	-52,	-237,	-106,	-195,	-234,	-258,	-93,	39,	145,	164,	164,	109,	119,	64,	-11,	105,	41,	29,	-63,	-6,	178,	-15,	-268,	-250,	-193,	-159,	-149,	173,	67,	60,	224,	-32,	11,	209,	148,	31,	74,	-19,	168,	49,	25,	82,	-114,	-179,	-282,	-184,	-17,	126,	-58,	71,	167,	179,	220,	235,	71,	-12,	-30,	-114,	58,	127,	91,	7,	-350,	-407,	-310,	-119,	39,	5,	-175,	282,	137,	236,	253,	285,	107,	-56,	-33,	18,	54,	-158,	4,	-130,	-228,	-198,	-159,	-62,	95,	84,	1,	161,	344,	419,	426,	435,	55,	20,
	39,	75,	28,	30,	78,	-14,	2,	-98,	93,	59,	-71,	101,	83,	-69,	-36,	-71,	1,	-82,	-32,	151,	-22,	83,	-130,	-44,	158,	52,	260,	156,	-38,	-178,	-68,	-10,	76,	54,	1,	210,	28,	-55,	-171,	271,	-64,	-175,	-79,	62,	49,	-52,	-109,	-88,	116,	21,	-88,	28,	-108,	24,	33,	134,	110,	-60,	59,	172,	-54,	-93,	29,	182,	72,	-43,	-72,	-108,	-36,	-79,	-123,	-66,	-2,	55,	107,	145,	264,	125,	161,	116,	35,	-102,	-14,	178,	-109,	76,	32,	-59,	-37,	69,	-118,	-42,	19,	93,	116,	-29,	24,	87,	24,	290,	-140,	40,	138,	7,	-62,	85,	26,	-1,	-67,	-28,	-81,	-148,	-91,	64,	134,	132,	14,	40,	-112,	132,	16,	-6,	69,	92,	16,	-66,	96,	50,	93,	104,	105,	20,	-25,	13,	32,	106,	-82,	-85,	117,	249,	47,	-42,	5,	213,	27,	23,	-61,	126,	119,	209,	258,	195,	41,	58,	88,	17,	-130,	-63,	166,	309,	2,	-128,	160,	122,	67,	72,	-16,	92,	116,	265,	233,	180,	-74,	55,	36,	91,	-5,	9,	222,	108,	-40,	-97,	71,	111,	194,	0,	10,	120,	12,	131,	109,	-55,	-28,	25,	18,	124,	59,	99,	284,	163,	42,	-51,	-91,	83,	122,	154,	23,	56,	-8,	-52,	-58,	-262,	-157,	-20,	-9,	100,	42,	254,	234,	171,	69,	88,	106,	51,	154,	173,	56,	30,	78,	-152,	-126,	-156,	-109,	-154,	-18,	52,	79,	236,	444,	205,	41,	-16,	70,	61,	160,	185,	135,	55,	53,	-53,	-271,	-200,	-121,	1,	-11,	107,	267,	243,	271,	197,	41,	-33,	39,	150,	160,	170,	37,	95,	121,	40,	-102,	-196,	-68,	1,	-12,	45,	71,	244,	-108,	-182,	-14,	-100,	18,	257,	126,	49,	126,	118,	5,	-5,	-64,	-74,	-66,	-21,	64,	83,	131,	87,	8,	-72,	25,	36,	2,	278,	138,	66,	69,	121,	-27,	-80,	-142,	-162,	-110,	-89,	-67,	47,	-61,	16,	-76,	-58,	55,	-81,	-24,	193,	-143,	49,	99,	108,	-40,	-216,	-108,	-104,	-263,	-184,	-86,	86,	42,	159,	32,	-145,	-6,	-18,	-23,	383,	301,	-4,	-110,	-189,	-183,	-234,	-207,	-221,	-257,	-324,	-81,	125,	103,	-22,	-94,	-128,	118,	58,	68,	260,	185,	310,	-176,	-217,	-179,	-151,	-248,	-299,	-259,	-453,	-179,	109,	133,	-18,	-60,	-171,	55,	-86,	-99,	208,	87,	51,	82,	-149,	-235,	-253,	-310,	-178,	-310,	-221,	4,	-12,	-93,	-59,	-136,	-102,
	21,	38,	-130,	-88,	33,	-64,	56,	8,	1,	43,	-18,	-71,	-178,	-94,	68,	48,	39,	123,	171,	44,	22,	8,	-129,	267,	84,	-55,	37,	20,	6,	-89,	-158,	-158,	-60,	-127,	-96,	-77,	-161,	20,	-104,	26,	17,	77,	-5,	256,	-237,	-191,	-45,	8,	-206,	-89,	-109,	-211,	-13,	-96,	-342,	-301,	-282,	-73,	-23,	84,	87,	38,	24,	37,	-66,	-127,	-63,	33,	-95,	61,	13,	-77,	-9,	-81,	-314,	-246,	-33,	62,	44,	-41,	5,	-14,	134,	4,	23,	-51,	10,	-135,	-168,	-92,	30,	-66,	-15,	-27,	-127,	-74,	-27,	119,	103,	12,	27,	-33,	138,	163,	18,	-151,	-105,	-131,	-103,	-52,	-39,	-24,	78,	-89,	51,	105,	-49,	-126,	-84,	-9,	101,	-6,	175,	106,	138,	-128,	-70,	-30,	-129,	-178,	-27,	60,	48,	-43,	-65,	81,	71,	-62,	-6,	125,	57,	62,	247,	225,	97,	87,	83,	-4,	7,	-134,	-127,	5,	-65,	-160,	-141,	-66,	6,	-100,	-46,	119,	-45,	24,	185,	172,	156,	172,	160,	174,	92,	36,	43,	88,	-64,	-133,	-124,	14,	-50,	2,	115,	114,	-43,	32,	134,	180,	215,	296,	107,	186,	188,	86,	190,	76,	54,	44,	-6,	136,	97,	137,	94,	198,	51,	3,	101,	171,	184,	227,	195,	139,	228,	232,	100,	90,	110,	163,	301,	194,	106,	193,	-10,	113,	-43,	-22,	31,	207,	176,	211,	247,	92,	127,	149,	126,	237,	228,	196,	335,	201,	159,	350,	3,	-3,	-45,	43,	-34,	-23,	99,	107,	104,	81,	-126,	47,	26,	56,	129,	71,	120,	114,	241,	205,	-165,	-224,	-5,	12,	74,	78,	-91,	-17,	-11,	-25,	-30,	-178,	-14,	3,	79,	36,	69,	68,	100,	-29,	-234,	-372,	82,	-73,	-140,	26,	-29,	-84,	-22,	-14,	-78,	-33,	21,	-10,	-72,	-70,	-46,	59,	-57,	-206,	-272,	-189,	2,	-18,	-24,	-228,	-146,	-132,	-33,	-54,	-32,	127,	130,	-51,	-76,	-110,	-24,	-70,	-132,	-243,	-173,	-236,	-13,	5,	-82,	-155,	-23,	-101,	-25,	20,	2,	50,	102,	-9,	-82,	-16,	-23,	-144,	-155,	-145,	28,	-234,	32,	-69,	-11,	-235,	-15,	48,	-57,	86,	-5,	28,	78,	-64,	-49,	-9,	4,	-234,	-229,	-133,	-99,	-164,	-25,	-127,	-81,	-114,	-36,	-1,	81,	-85,	71,	18,	-64,	-5,	9,	-145,	-252,	-165,	-90,	-229,	-127,	-179,	72,	-113,	-78,	-96,	-68,	-71,	95,	10,	176,	72,	85,	206,	83,	48,	-294,	-268,	-273,	-251,	-115,	-136,
	72,	-44,	-61,	-216,	34,	-75,	-23,	-72,	-115,	-69,	-30,	-15,	71,	-100,	-83,	-133,	35,	0,	0,	-41,	113,	-68,	30,	-90,	-98,	-14,	-178,	-242,	28,	103,	41,	33,	-74,	-98,	-83,	-77,	31,	45,	-102,	-92,	126,	68,	0,	-134,	-33,	-214,	-126,	-137,	-66,	-33,	-39,	-191,	-339,	-171,	-86,	-181,	-124,	-4,	-62,	-138,	9,	-25,	-81,	-49,	-81,	-265,	-144,	-184,	-46,	-103,	58,	-147,	-305,	-57,	145,	-63,	-96,	-184,	-101,	-24,	-36,	107,	53,	36,	52,	-221,	-132,	-128,	-182,	-90,	26,	-65,	-100,	-25,	-51,	-210,	-27,	-154,	-142,	-288,	-9,	-15,	32,	-100,	-11,	-75,	-142,	-228,	-223,	-116,	45,	-15,	92,	-2,	-24,	-157,	-53,	-68,	-93,	-154,	-4,	43,	95,	-54,	83,	-79,	-231,	-235,	-187,	-138,	-91,	29,	53,	18,	108,	-43,	-144,	-70,	-105,	-70,	-64,	35,	-17,	-136,	108,	3,	-148,	-196,	-237,	-111,	-30,	74,	170,	82,	125,	-42,	-269,	-70,	99,	-166,	-11,	-54,	-94,	-32,	-26,	-109,	-198,	-298,	-217,	-34,	104,	215,	298,	279,	177,	-218,	-402,	-158,	123,	-86,	-85,	38,	-92,	-30,	-24,	-76,	-342,	-272,	-70,	62,	181,	215,	251,	257,	142,	-3,	-239,	-358,	16,	-68,	8,	-3,	-46,	-103,	-1,	-136,	-267,	-132,	-117,	6,	162,	156,	184,	152,	20,	-1,	-112,	-133,	-68,	-110,	44,	98,	66,	-132,	-45,	-184,	-262,	-185,	-23,	54,	175,	74,	-24,	-91,	76,	109,	-157,	-88,	-60,	-125,	-17,	17,	-129,	-112,	-72,	-185,	-138,	-92,	10,	132,	233,	78,	-126,	-170,	60,	-28,	-121,	30,	-82,	-35,	38,	-69,	-79,	-75,	10,	-199,	107,	262,	151,	111,	186,	7,	-61,	-17,	124,	-45,	-151,	-126,	-32,	-9,	13,	-45,	-86,	-63,	-65,	-51,	79,	238,	158,	106,	225,	-79,	-103,	35,	70,	-177,	-125,	-97,	25,	89,	-73,	35,	225,	-194,	-107,	65,	59,	239,	98,	81,	59,	-74,	48,	-94,	-90,	-127,	-198,	167,	166,	53,	-53,	-27,	-21,	-57,	75,	36,	130,	114,	106,	217,	124,	0,	-49,	-140,	-238,	-137,	-6,	61,	124,	67,	-20,	47,	-51,	-98,	-21,	109,	86,	260,	202,	145,	59,	-122,	-256,	-262,	-247,	-44,	63,	2,	163,	86,	79,	32,	-108,	-128,	54,	-54,	141,	122,	312,	95,	36,	-84,	-183,	10,	-216,	-91,	119,	45,	11,	-71,	-54,	31,	-22,	-52,	-101,	5,	71,	276,	325,	300,	139,	43,	27,	-121,	-100,	-270,	11,	82,	-42,	-120,
	52,	115,	-50,	213,	78,	86,	-162,	-124,	61,	-141,	-55,	-135,	-89,	-45,	44,	49,	55,	158,	-66,	132,	47,	54,	44,	17,	-7,	52,	-82,	224,	188,	-32,	17,	127,	176,	-49,	-19,	-160,	-48,	51,	-189,	45,	-12,	-38,	-14,	-215,	-233,	-85,	89,	115,	-118,	-83,	27,	146,	94,	181,	-33,	30,	178,	119,	93,	58,	-125,	-70,	-161,	-242,	-145,	208,	-54,	142,	210,	71,	97,	142,	351,	214,	93,	0,	-44,	-109,	-23,	70,	18,	-73,	-222,	-311,	82,	159,	37,	73,	111,	191,	114,	134,	246,	229,	147,	191,	-101,	-275,	-147,	78,	-5,	-94,	-354,	-36,	63,	28,	90,	47,	45,	69,	98,	134,	196,	302,	170,	242,	-26,	-247,	-199,	-48,	-2,	-114,	-234,	19,	-11,	211,	150,	164,	120,	-16,	137,	127,	164,	206,	116,	71,	128,	-202,	-239,	-88,	-58,	53,	-116,	12,	101,	217,	262,	149,	131,	107,	87,	41,	71,	-46,	102,	60,	113,	-178,	-183,	12,	-4,	-79,	-81,	5,	35,	48,	86,	101,	3,	-94,	-153,	-238,	-176,	-123,	-39,	16,	-4,	-88,	-94,	111,	6,	52,	98,	119,	67,	49,	-39,	-87,	-165,	-274,	-263,	-207,	-227,	7,	-13,	-64,	-2,	28,	-31,	75,	42,	48,	79,	181,	29,	-8,	-55,	-245,	-264,	-129,	-234,	-173,	-142,	-12,	106,	-50,	43,	216,	-7,	-26,	-33,	15,	107,	130,	-8,	-49,	-88,	-209,	-180,	-219,	-137,	-72,	-6,	35,	157,	6,	39,	91,	73,	-32,	20,	49,	252,	68,	-94,	-12,	-12,	-140,	-81,	-234,	-111,	36,	-13,	19,	115,	40,	-45,	-261,	193,	-14,	-90,	20,	140,	3,	-93,	14,	48,	-67,	75,	45,	39,	106,	42,	63,	27,	-55,	-234,	-113,	-101,	-91,	-16,	-37,	129,	160,	-129,	114,	151,	139,	130,	230,	222,	256,	53,	53,	91,	71,	-161,	-24,	-2,	-124,	73,	-72,	58,	58,	-253,	-51,	237,	183,	122,	182,	218,	118,	-4,	99,	76,	-150,	-123,	-73,	11,	-96,	-55,	-10,	75,	-46,	-136,	-4,	69,	137,	58,	185,	85,	116,	-29,	136,	94,	-85,	-186,	-70,	-152,	-110,	36,	-67,	108,	156,	121,	186,	148,	129,	156,	21,	180,	127,	-88,	-70,	-141,	-129,	-106,	-96,	-155,	-147,	59,	-91,	-174,	-199,	107,	-87,	461,	134,	123,	79,	174,	-18,	-101,	-193,	98,	-126,	-57,	-1,	125,	56,	56,	79,	-210,	-102,	23,	-26,	50,	42,	-53,	-142,	-96,	-32,	28,	73,	-100,	20,	50,	19,	129,	-30,
	39,	59,	31,	118,	87,	129,	108,	38,	-32,	71,	124,	186,	106,	1,	4,	39,	90,	-84,	-124,	-126,	-9,	-35,	37,	-34,	-14,	185,	161,	-10,	203,	88,	129,	166,	236,	30,	-207,	-167,	-133,	54,	-53,	-59,	55,	87,	160,	-7,	19,	-46,	10,	7,	54,	183,	248,	104,	196,	-54,	-134,	-225,	3,	-176,	127,	-87,	93,	63,	-128,	53,	62,	-73,	23,	41,	34,	-5,	184,	350,	181,	-127,	-202,	-156,	-151,	-100,	195,	-39,	40,	-24,	-28,	-73,	-35,	-126,	-70,	15,	-62,	111,	155,	144,	77,	57,	-6,	19,	28,	-53,	260,	155,	23,	-31,	-164,	-124,	71,	-68,	18,	-9,	-120,	-88,	139,	200,	4,	-7,	37,	-155,	65,	-96,	70,	-66,	-24,	19,	-129,	-111,	32,	-124,	-21,	-59,	-134,	8,	157,	204,	241,	168,	69,	167,	136,	100,	218,	-285,	10,	-36,	-110,	-224,	-151,	-140,	-42,	-151,	-29,	-63,	168,	245,	188,	142,	23,	94,	160,	39,	193,	-155,	22,	12,	-151,	-253,	-66,	-65,	-85,	-133,	-165,	15,	167,	280,	135,	32,	28,	-28,	-33,	50,	61,	-137,	30,	9,	-131,	-257,	14,	12,	-4,	100,	95,	14,	262,	192,	44,	-81,	-202,	-157,	-79,	47,	-174,	-181,	40,	33,	-88,	-327,	-116,	130,	132,	166,	54,	55,	61,	74,	83,	-129,	-233,	-188,	-59,	-112,	-275,	-230,	45,	26,	-36,	-247,	-138,	194,	270,	186,	140,	-70,	129,	56,	-13,	-187,	-214,	-162,	-218,	-229,	-263,	-239,	56,	-3,	22,	-234,	-13,	-52,	133,	49,	119,	3,	83,	-41,	-67,	-290,	-183,	-293,	-120,	-164,	-155,	-189,	5,	41,	-80,	-199,	-84,	-51,	-5,	64,	26,	39,	-118,	-40,	-77,	-107,	-27,	-203,	-192,	-192,	-68,	-149,	-25,	-30,	-13,	-186,	-77,	-113,	-18,	-1,	1,	-21,	-58,	-94,	37,	17,	-146,	-171,	-155,	75,	61,	10,	3,	-8,	-83,	-210,	54,	-25,	35,	39,	-94,	-90,	-57,	-73,	16,	-72,	-78,	-295,	-230,	-129,	59,	28,	8,	-24,	-164,	-30,	121,	78,	-22,	19,	-145,	-58,	-78,	-62,	-192,	-147,	-83,	-84,	-249,	57,	115,	133,	-31,	41,	-7,	131,	332,	331,	137,	154,	-20,	-48,	-60,	61,	-183,	25,	-43,	-164,	-97,	68,	146,	232,	-81,	44,	26,	182,	238,	156,	11,	34,	-155,	-60,	-11,	34,	-59,	-12,	-361,	-186,	-148,	76,	37,	217,	99,	96,	48,	107,	132,	120,	82,	234,	91,	102,	-10,	-158,	-157,	-129,	-101,	-108,	-125,	110,	22,	252,
	100,	123,	-41,	74,	-124,	74,	49,	47,	7,	2,	72,	-11,	67,	32,	115,	25,	-13,	26,	44,	130,	56,	-33,	27,	81,	-47,	166,	76,	74,	-101,	124,	-34,	9,	69,	104,	74,	-30,	214,	-45,	-68,	33,	-71,	51,	-23,	170,	-63,	10,	-44,	27,	10,	-93,	8,	109,	139,	100,	-9,	-8,	191,	95,	9,	64,	4,	-120,	-29,	71,	-88,	-182,	-149,	2,	-64,	-60,	13,	12,	55,	137,	-124,	140,	42,	67,	123,	71,	76,	27,	177,	-60,	-236,	-170,	-225,	-178,	-104,	73,	81,	7,	-31,	-18,	-70,	36,	107,	84,	98,	68,	-90,	-112,	120,	-126,	-279,	-167,	-178,	-190,	-21,	119,	-32,	-4,	-83,	125,	145,	161,	174,	172,	307,	148,	-60,	8,	86,	-175,	-341,	-93,	-35,	-55,	-106,	22,	33,	-124,	2,	43,	147,	72,	139,	85,	16,	107,	-13,	-129,	153,	-315,	-70,	-39,	-37,	-69,	-5,	-39,	42,	88,	-113,	89,	138,	139,	68,	-102,	71,	148,	-24,	55,	41,	-337,	-56,	-11,	-13,	-141,	-110,	-23,	92,	-93,	-25,	-14,	182,	289,	59,	-49,	-26,	5,	48,	1,	56,	-200,	87,	-49,	-89,	-5,	-42,	19,	13,	-25,	-64,	112,	152,	274,	-20,	39,	22,	76,	-82,	8,	93,	-161,	170,	-89,	-73,	-208,	-21,	-30,	9,	-142,	-146,	231,	194,	116,	-3,	-73,	12,	115,	-65,	-45,	59,	-237,	163,	15,	-148,	-119,	-108,	9,	-148,	-150,	-166,	100,	137,	116,	-1,	-81,	-147,	-45,	-82,	-84,	119,	-108,	141,	56,	-82,	-101,	-117,	40,	-124,	-162,	24,	124,	257,	132,	45,	-22,	-157,	-56,	34,	-80,	-17,	-63,	45,	-56,	-172,	-132,	-109,	-183,	-21,	-126,	113,	243,	176,	18,	38,	-77,	-42,	-20,	-60,	-43,	24,	-55,	-7,	-128,	-261,	-136,	-12,	-41,	-147,	-102,	172,	139,	207,	180,	193,	-16,	26,	-104,	92,	-14,	38,	-3,	14,	-207,	-297,	-209,	-197,	-103,	-86,	94,	135,	339,	106,	171,	215,	0,	-15,	-103,	82,	48,	42,	-120,	-185,	-255,	-333,	-245,	-168,	-120,	77,	215,	261,	261,	201,	108,	-24,	1,	63,	-66,	62,	21,	107,	-7,	-80,	-268,	-229,	-95,	-229,	-146,	-150,	288,	201,	166,	74,	-6,	-242,	-104,	-64,	-50,	-5,	8,	59,	-7,	-92,	-161,	-162,	-6,	-65,	-89,	-16,	154,	264,	244,	50,	-192,	-259,	-78,	-181,	-103,	8,	-53,	-137,	-62,	-49,	-24,	-12,	-61,	-106,	-149,	79,	189,	120,	-9,	-121,	-62,	-276,	-60,	-29,	-70,
	44,	129,	170,	181,	81,	130,	2,	53,	75,	172,	125,	158,	93,	83,	-96,	66,	-6,	-35,	3,	-24,	17,	52,	123,	196,	-9,	212,	251,	186,	260,	215,	213,	146,	235,	88,	68,	87,	200,	29,	-82,	-67,	8,	27,	72,	-139,	8,	150,	376,	73,	94,	40,	149,	245,	160,	-47,	55,	160,	70,	-41,	-51,	19,	-29,	-82,	-94,	12,	168,	95,	182,	167,	119,	36,	109,	105,	107,	135,	-32,	-102,	-288,	-70,	-234,	-76,	-6,	-45,	-175,	-23,	210,	-55,	80,	76,	40,	149,	110,	183,	83,	112,	97,	-24,	-110,	-108,	-136,	23,	-54,	-84,	-54,	16,	2,	16,	14,	68,	-13,	-12,	80,	248,	278,	196,	160,	-119,	31,	-76,	-84,	-49,	17,	-72,	-21,	-31,	26,	17,	22,	56,	45,	42,	208,	144,	196,	91,	211,	246,	71,	2,	96,	-73,	123,	93,	-145,	-66,	-39,	-178,	49,	-84,	-13,	-10,	165,	29,	195,	116,	281,	264,	136,	38,	222,	-58,	109,	6,	-123,	-151,	-108,	-142,	-130,	-63,	-72,	-31,	-80,	24,	-97,	43,	128,	245,	119,	82,	197,	17,	7,	26,	-106,	-88,	-98,	4,	-34,	-16,	-27,	119,	-64,	-174,	-145,	-298,	-162,	38,	5,	110,	193,	-21,	82,	21,	-138,	-217,	-72,	-67,	-5,	90,	10,	-30,	-64,	-115,	-320,	-183,	-291,	-167,	-110,	44,	150,	-56,	26,	106,	-35,	-153,	-94,	73,	83,	60,	9,	-108,	-103,	-209,	-322,	-305,	-282,	-277,	-254,	-195,	148,	-52,	85,	89,	-78,	-99,	19,	-50,	117,	104,	110,	62,	-103,	-149,	-240,	-63,	-248,	-294,	-153,	-17,	322,	195,	44,	80,	94,	-72,	31,	68,	-9,	40,	75,	78,	-29,	33,	-7,	-51,	-163,	-114,	-228,	150,	119,	-60,	-52,	32,	73,	108,	56,	13,	99,	43,	1,	7,	124,	126,	3,	-125,	-296,	-73,	43,	124,	67,	-19,	-39,	98,	121,	223,	126,	-7,	45,	72,	89,	-8,	57,	113,	-2,	-154,	-151,	-193,	-13,	77,	147,	8,	63,	11,	56,	173,	-64,	13,	95,	13,	-16,	86,	42,	97,	-53,	-136,	54,	-95,	-57,	214,	10,	214,	-8,	157,	-2,	130,	52,	269,	17,	-46,	97,	77,	244,	192,	-68,	-42,	-98,	-106,	-77,	115,	155,	127,	47,	202,	27,	21,	89,	197,	127,	-55,	48,	52,	212,	-121,	-266,	-326,	-207,	-75,	-163,	49,	165,	144,	89,	106,	-56,	95,	145,	0,	105,	73,	0,	48,	-62,	-192,	-269,	-261,	-86,	-216,	9,	-107,	14,	176,
	-12,	69,	197,	-46,	-48,	125,	32,	38,	50,	41,	69,	99,	56,	59,	-107,	-9,	97,	-9,	13,	-258,	31,	21,	140,	-200,	-111,	19,	53,	61,	150,	95,	247,	53,	255,	67,	18,	-99,	42,	32,	-114,	-157,	-13,	24,	61,	-180,	31,	-30,	22,	-173,	210,	25,	-30,	45,	144,	12,	157,	41,	111,	-92,	-43,	-197,	-62,	-2,	-144,	177,	8,	15,	29,	-77,	73,	109,	-73,	45,	158,	61,	41,	15,	-13,	-275,	-218,	-73,	44,	-6,	-67,	220,	18,	91,	-45,	2,	83,	3,	-30,	72,	196,	88,	14,	-3,	-1,	-214,	-132,	-93,	-5,	82,	109,	-22,	-59,	-36,	-28,	6,	32,	-63,	42,	64,	156,	147,	22,	87,	-23,	22,	-306,	-223,	-9,	74,	-43,	-28,	-33,	-62,	-37,	-11,	147,	113,	125,	63,	79,	155,	236,	145,	277,	69,	-37,	-194,	1,	-59,	-117,	-109,	-175,	-186,	-65,	-78,	17,	59,	60,	21,	99,	226,	139,	111,	239,	232,	72,	-77,	-79,	-36,	29,	-115,	-63,	-155,	-133,	-67,	-128,	-53,	-128,	18,	41,	80,	158,	119,	229,	170,	126,	-126,	-2,	54,	3,	-97,	-184,	-246,	-35,	-152,	-149,	-70,	-58,	-2,	84,	-91,	-8,	27,	52,	53,	25,	-193,	-31,	-184,	-25,	-93,	-75,	-165,	-125,	-17,	-177,	-7,	-78,	20,	-100,	-197,	-212,	38,	85,	-30,	-189,	-256,	-99,	-50,	-25,	-102,	-57,	-87,	-36,	-43,	-41,	-138,	-38,	-139,	-72,	-211,	-130,	-156,	-173,	-92,	-91,	-120,	-15,	22,	-67,	-6,	-92,	-96,	-50,	6,	-10,	66,	70,	-175,	-136,	-111,	-201,	-247,	-157,	-69,	298,	156,	-5,	45,	-15,	32,	-21,	-2,	53,	113,	68,	95,	2,	-59,	-129,	-122,	-209,	-123,	-87,	-9,	243,	136,	-96,	-20,	71,	15,	17,	81,	216,	236,	210,	12,	20,	26,	-88,	-25,	-70,	-48,	-33,	96,	161,	157,	-26,	-7,	56,	325,	123,	-8,	90,	137,	261,	-111,	-166,	-12,	-132,	-200,	-37,	-58,	77,	133,	154,	140,	-10,	45,	94,	183,	21,	143,	-27,	26,	82,	87,	-124,	-34,	-146,	-76,	73,	158,	106,	151,	50,	73,	9,	14,	22,	331,	134,	30,	140,	75,	345,	52,	-41,	-125,	-104,	-63,	27,	163,	234,	153,	187,	198,	36,	109,	-91,	125,	204,	-1,	183,	92,	182,	-31,	-168,	-219,	-177,	-96,	216,	116,	119,	239,	73,	218,	18,	81,	111,	129,	37,	84,	24,	-67,	-234,	-99,	-70,	-324,	0,	36,	301,	314,	335,	370,	63,	16,
	32,	-86,	-38,	-60,	-40,	-57,	-46,	-14,	-128,	-95,	-107,	69,	-132,	37,	-98,	-39,	-45,	-30,	145,	272,	-15,	-45,	26,	17,	-28,	0,	-134,	-82,	-107,	53,	142,	65,	-123,	-53,	-110,	-19,	-34,	-78,	-102,	232,	-13,	-18,	163,	59,	127,	3,	-315,	-265,	-73,	-53,	-76,	6,	144,	-304,	-218,	181,	-7,	-156,	44,	241,	19,	58,	122,	57,	-39,	-219,	-431,	-405,	-269,	-11,	99,	72,	66,	49,	-162,	0,	-37,	-140,	-77,	260,	-40,	-6,	106,	97,	-152,	-258,	-278,	-379,	-105,	58,	32,	30,	15,	-78,	-49,	22,	-8,	-6,	-48,	207,	39,	-154,	84,	-68,	-168,	-155,	-311,	-385,	-35,	163,	120,	115,	86,	-128,	38,	-27,	-7,	-240,	-70,	-47,	-68,	-25,	-35,	-49,	-115,	1,	-66,	-202,	-129,	-6,	145,	-15,	-89,	-78,	18,	24,	25,	-132,	-176,	65,	49,	-64,	21,	71,	-207,	-17,	5,	-89,	-102,	-5,	46,	85,	102,	-63,	62,	132,	23,	-119,	-176,	-30,	-66,	122,	121,	-22,	-153,	65,	83,	73,	-6,	-80,	112,	-50,	-89,	-76,	-22,	107,	43,	41,	-338,	11,	55,	111,	16,	-79,	-130,	158,	156,	4,	-88,	-147,	-43,	-129,	-329,	-121,	-76,	33,	52,	48,	-95,	-50,	30,	55,	140,	136,	-136,	113,	64,	147,	-171,	-140,	-31,	38,	-232,	-153,	36,	-10,	41,	15,	-213,	-20,	9,	65,	186,	144,	-131,	46,	165,	123,	-106,	-18,	104,	182,	2,	-94,	-11,	6,	-61,	-117,	-179,	86,	-53,	125,	107,	66,	-117,	10,	-13,	22,	-33,	43,	169,	101,	69,	-42,	29,	-84,	12,	-60,	-53,	29,	-13,	76,	236,	89,	-86,	-99,	8,	7,	-1,	21,	164,	128,	229,	-11,	34,	-40,	-53,	51,	-118,	109,	23,	-136,	17,	166,	153,	-8,	5,	27,	17,	85,	45,	148,	33,	97,	15,	-63,	-60,	44,	52,	147,	-83,	-138,	-148,	57,	19,	-55,	45,	-19,	-41,	43,	26,	111,	64,	37,	88,	160,	-29,	-4,	-9,	-9,	13,	-77,	-128,	-74,	149,	171,	96,	1,	-144,	-94,	-65,	-11,	44,	104,	275,	105,	-172,	-65,	88,	123,	29,	-36,	-122,	62,	86,	9,	-62,	-291,	-152,	-190,	-61,	102,	-31,	-60,	151,	14,	-369,	-41,	-148,	9,	39,	-98,	-105,	351,	243,	-30,	83,	-44,	-61,	-256,	-256,	-104,	-366,	-208,	-5,	45,	-219,	-156,	-108,	-62,	167,	166,	-131,	181,	61,	-9,	-23,	9,	91,	-82,	-60,	-39,	-230,	-194,	97,	-11,	-87,	-232,	-48,	-89,
	-237,	-151,	52,	-50,	-13,	0,	112,	49,	-85,	125,	20,	51,	15,	-17,	-191,	-87,	1,	-24,	104,	83,	-177,	-136,	-42,	78,	-110,	-14,	-98,	-229,	-164,	-135,	-94,	32,	39,	-192,	-144,	-230,	-147,	70,	93,	81,	-139,	-41,	174,	-27,	-26,	-154,	-148,	2,	-36,	122,	235,	131,	147,	82,	-114,	-412,	-235,	-13,	-156,	-127,	-91,	-58,	41,	6,	-201,	-211,	-107,	152,	-10,	227,	242,	152,	96,	66,	-11,	-186,	-18,	-56,	-206,	-72,	-88,	120,	-45,	-144,	-295,	-223,	7,	81,	50,	-61,	239,	139,	116,	236,	51,	54,	56,	-112,	-249,	-132,	-48,	-5,	2,	-208,	-362,	-243,	-37,	-130,	-48,	-30,	74,	18,	23,	97,	-48,	-39,	56,	83,	-166,	-42,	-95,	-16,	-39,	-128,	-317,	-132,	-41,	-96,	67,	176,	78,	-31,	-38,	125,	164,	61,	154,	178,	-144,	146,	48,	106,	-38,	-210,	-256,	-156,	-3,	15,	48,	-67,	-39,	-48,	-38,	118,	165,	119,	242,	137,	-33,	27,	-19,	38,	22,	-211,	-58,	-62,	-18,	-77,	15,	54,	-44,	-100,	-67,	132,	157,	63,	135,	44,	101,	27,	-4,	92,	-22,	-179,	-129,	80,	6,	133,	200,	28,	77,	150,	123,	86,	148,	-64,	11,	-20,	2,	77,	-32,	27,	67,	-158,	-152,	-5,	46,	86,	183,	28,	-11,	58,	117,	149,	92,	-57,	-242,	-142,	-127,	-23,	-17,	43,	-21,	-154,	-258,	63,	12,	125,	104,	91,	5,	132,	80,	200,	-15,	-228,	-230,	-205,	-182,	-53,	81,	-14,	-11,	-103,	-113,	-27,	-89,	-31,	116,	176,	112,	-47,	-76,	-119,	-163,	-200,	-254,	40,	9,	-182,	-36,	28,	-25,	-130,	-112,	71,	-147,	98,	-18,	-18,	-181,	-260,	-62,	-245,	-143,	31,	2,	-90,	-48,	-204,	90,	101,	20,	-96,	-251,	12,	43,	111,	100,	-128,	-209,	-280,	-216,	25,	-30,	-18,	-44,	-56,	9,	-111,	90,	68,	93,	-139,	-310,	93,	192,	110,	-7,	-140,	-254,	-302,	-112,	76,	69,	74,	-16,	-124,	-146,	-187,	16,	-28,	-12,	-236,	-239,	-18,	53,	59,	117,	-135,	-370,	-432,	-157,	119,	160,	104,	68,	-69,	-39,	-57,	-2,	-68,	96,	-163,	-173,	124,	123,	46,	-2,	-162,	-362,	-358,	-18,	265,	197,	206,	135,	21,	-16,	40,	26,	56,	49,	-132,	-134,	20,	10,	122,	132,	-183,	-148,	-134,	145,	239,	87,	77,	175,	123,	-47,	48,	7,	18,	68,	-33,	77,	89,	17,	206,	-8,	198,	181,	-92,	163,	233,	233,	328,	74,	185,	29,	119,
	13,	-85,	62,	20,	14,	42,	-35,	32,	126,	32,	2,	28,	-13,	-28,	-120,	-178,	-18,	-201,	-139,	78,	-46,	6,	57,	-4,	-9,	-58,	-135,	-135,	38,	141,	-162,	-77,	-201,	-218,	9,	43,	149,	32,	26,	107,	68,	3,	71,	192,	90,	-38,	-37,	-58,	102,	37,	1,	-81,	-171,	-98,	49,	87,	234,	130,	-55,	-25,	-64,	-64,	125,	271,	143,	-10,	54,	-91,	-47,	-35,	-102,	-342,	-374,	-154,	225,	178,	182,	-15,	97,	-77,	102,	-40,	93,	306,	125,	-31,	-33,	-125,	-18,	73,	-215,	-321,	-213,	-135,	155,	190,	232,	97,	244,	-121,	-41,	-63,	34,	147,	31,	194,	56,	79,	114,	95,	-216,	-349,	-262,	46,	98,	271,	267,	229,	75,	27,	-10,	-20,	54,	333,	48,	165,	-51,	-43,	6,	40,	-131,	-350,	-107,	-45,	110,	188,	68,	206,	173,	-4,	54,	-58,	33,	191,	179,	176,	12,	-71,	-47,	78,	-166,	-287,	-202,	-34,	-40,	35,	104,	148,	247,	1,	-51,	-51,	7,	118,	228,	78,	17,	-61,	-66,	21,	-191,	-425,	-288,	-129,	0,	13,	70,	183,	119,	25,	-40,	-99,	62,	89,	236,	186,	48,	-5,	-28,	-7,	-244,	-484,	-242,	-147,	-57,	-88,	-2,	111,	-71,	-3,	51,	43,	28,	26,	140,	132,	55,	132,	73,	-4,	-165,	-552,	-244,	-87,	-49,	-26,	78,	30,	15,	-82,	18,	-28,	14,	-59,	292,	199,	135,	-48,	29,	-8,	-256,	-598,	-154,	-89,	52,	90,	97,	36,	42,	29,	-102,	61,	-17,	-193,	183,	28,	130,	13,	78,	33,	25,	-200,	-73,	57,	20,	72,	88,	-68,	53,	166,	-51,	10,	94,	-41,	237,	27,	126,	-28,	117,	109,	120,	-46,	34,	151,	116,	4,	206,	-115,	166,	233,	88,	-27,	-35,	-85,	140,	-11,	77,	-128,	-25,	64,	-85,	-162,	87,	123,	169,	-10,	86,	-58,	110,	164,	93,	74,	-43,	-170,	-105,	1,	41,	21,	-26,	187,	-77,	-25,	204,	228,	6,	-56,	236,	14,	213,	172,	188,	-9,	-70,	-73,	-175,	44,	61,	117,	138,	44,	6,	-62,	224,	238,	42,	78,	316,	166,	51,	22,	114,	-140,	-40,	67,	187,	-36,	-88,	-79,	-78,	-15,	69,	-12,	126,	264,	38,	-91,	318,	209,	10,	87,	50,	8,	-47,	-19,	34,	123,	-109,	-9,	-67,	-19,	6,	27,	-10,	269,	147,	-164,	15,	-14,	-7,	44,	110,	-74,	-26,	-103,	-55,	-123,	-70,	27,	129,	-160,	-223,	-49,	-157,	51,	-67,	-150,	-37,	-117,	-114,	-37,
	-22,	-82,	-65,	-45,	-46,	-68,	-103,	-104,	-117,	-185,	-105,	-203,	-70,	67,	-145,	-11,	16,	35,	-184,	-25,	10,	-15,	-1,	-77,	-117,	-8,	-65,	-9,	-130,	-17,	-208,	-228,	-237,	-24,	83,	100,	60,	-82,	-163,	74,	21,	-47,	-44,	-161,	-205,	43,	227,	191,	122,	53,	99,	-33,	-66,	-288,	-152,	37,	-111,	-70,	-18,	64,	38,	-6,	6,	-205,	-131,	-13,	-19,	93,	21,	195,	87,	21,	59,	79,	-71,	-56,	8,	-32,	0,	-186,	47,	-107,	1,	-132,	101,	28,	12,	129,	108,	161,	54,	116,	5,	9,	-52,	-265,	-298,	-175,	-62,	-126,	43,	-41,	76,	71,	172,	37,	1,	22,	51,	199,	138,	173,	93,	-16,	-88,	-173,	-78,	-236,	-137,	-122,	9,	-17,	62,	137,	100,	-16,	13,	13,	49,	121,	203,	221,	141,	-94,	-153,	-152,	-84,	-163,	-83,	-99,	64,	-121,	-73,	62,	98,	38,	42,	-51,	-26,	40,	63,	177,	130,	-15,	-71,	-11,	-60,	-53,	-180,	43,	109,	-57,	39,	133,	-9,	-69,	0,	18,	-94,	-101,	-63,	41,	108,	-72,	-23,	-74,	-21,	5,	-43,	-60,	52,	-2,	91,	112,	43,	-70,	-126,	-89,	-33,	-11,	-178,	-84,	94,	40,	184,	75,	11,	131,	18,	-152,	30,	56,	-14,	36,	5,	-31,	-58,	-45,	-91,	-136,	-84,	2,	-83,	-39,	134,	62,	-62,	320,	91,	-79,	34,	130,	-31,	46,	99,	60,	19,	70,	21,	-140,	-116,	-212,	-155,	-177,	217,	95,	143,	281,	168,	-150,	14,	109,	47,	63,	-85,	63,	-3,	184,	129,	-42,	-163,	-50,	-128,	61,	9,	150,	229,	159,	419,	269,	0,	-28,	40,	30,	84,	160,	142,	68,	136,	205,	-13,	11,	-47,	-7,	-46,	42,	63,	53,	244,	246,	-40,	123,	80,	34,	109,	172,	107,	136,	90,	140,	114,	140,	82,	-29,	-230,	-157,	-184,	-56,	35,	114,	-52,	-56,	2,	2,	11,	158,	133,	142,	231,	104,	90,	98,	-85,	-179,	-136,	-248,	-168,	-89,	2,	253,	8,	38,	-133,	-59,	-79,	38,	130,	186,	71,	183,	90,	148,	-53,	-106,	-94,	-233,	-283,	-105,	-93,	110,	-70,	102,	-177,	-153,	-6,	38,	20,	100,	345,	217,	233,	136,	-94,	-221,	-172,	-234,	-209,	-63,	-17,	2,	13,	-34,	-157,	-108,	105,	154,	203,	82,	320,	402,	347,	-23,	-266,	-416,	-523,	-460,	-24,	2,	49,	215,	-113,	-31,	-151,	72,	146,	67,	14,	72,	294,	217,	135,	19,	-69,	-267,	-521,	-398,	-2,	41,	-5,	323,
	-66,	147,	-7,	11,	79,	66,	48,	23,	138,	89,	82,	67,	-38,	77,	89,	181,	-99,	174,	189,	68,	-145,	15,	13,	104,	77,	-77,	81,	-9,	55,	-145,	92,	-42,	53,	-70,	22,	46,	-181,	61,	110,	8,	-81,	13,	155,	57,	32,	-132,	-67,	6,	16,	105,	89,	-80,	-86,	-140,	-146,	-170,	-271,	-227,	-88,	8,	-37,	-8,	-57,	-75,	48,	-96,	148,	164,	-36,	206,	334,	123,	118,	42,	-56,	-55,	-106,	-191,	-332,	176,	79,	-62,	-109,	-183,	15,	45,	81,	286,	182,	200,	317,	13,	151,	66,	-122,	-36,	-146,	-398,	-300,	141,	2,	-44,	-198,	-104,	18,	69,	96,	113,	139,	202,	213,	83,	12,	42,	-16,	-35,	-84,	-123,	-302,	47,	-37,	-15,	-120,	-112,	-64,	31,	70,	66,	207,	200,	219,	192,	71,	183,	142,	36,	7,	21,	-210,	10,	-29,	25,	-105,	-127,	-20,	66,	130,	115,	165,	173,	272,	114,	-5,	85,	69,	96,	203,	63,	-144,	-48,	24,	-30,	-84,	-14,	8,	22,	143,	35,	91,	122,	207,	115,	69,	10,	61,	-30,	-52,	-76,	-64,	-12,	76,	62,	-93,	-85,	-48,	-55,	78,	154,	78,	146,	169,	41,	64,	-69,	-17,	-125,	-140,	43,	-37,	-51,	136,	-15,	-100,	-105,	-44,	131,	145,	-37,	128,	125,	33,	103,	-10,	31,	-77,	-182,	-93,	-54,	-148,	-40,	5,	126,	-27,	-56,	-2,	60,	-1,	-51,	59,	-12,	-63,	-8,	73,	12,	1,	-126,	-187,	-94,	-244,	-151,	42,	29,	-16,	-69,	40,	70,	-105,	-59,	-212,	34,	-116,	-94,	-66,	27,	91,	-51,	-91,	-70,	-21,	-165,	26,	8,	61,	22,	30,	-87,	-221,	-78,	-254,	-107,	-240,	-43,	-120,	-21,	43,	92,	-113,	3,	20,	-83,	-30,	-20,	103,	-28,	75,	-145,	-102,	-66,	-104,	-210,	-243,	-226,	-81,	-38,	12,	102,	67,	-43,	53,	2,	-27,	-49,	16,	-52,	0,	24,	3,	-68,	-30,	-254,	-218,	-96,	-18,	19,	-6,	50,	44,	67,	-3,	29,	-15,	-5,	-35,	-6,	-97,	-59,	-39,	-9,	1,	-138,	-165,	-226,	-127,	69,	31,	10,	112,	98,	116,	165,	76,	-47,	238,	-126,	-86,	-132,	-100,	99,	25,	-189,	-273,	-141,	24,	52,	-36,	6,	88,	79,	141,	265,	36,	37,	221,	-90,	26,	-2,	-102,	100,	-114,	-160,	-252,	-158,	62,	90,	-50,	-23,	41,	74,	58,	193,	7,	105,	214,	-8,	6,	-163,	-66,	30,	-200,	-178,	-188,	-182,	-3,	51,	236,	188,	101,	120,	96,	290,
	148,	116,	-15,	-46,	80,	-68,	37,	7,	61,	-10,	-81,	256,	188,	106,	118,	77,	16,	-14,	-323,	-107,	-81,	38,	-115,	-129,	-5,	253,	66,	-40,	-119,	-61,	-48,	67,	249,	252,	-159,	-112,	13,	124,	-142,	-181,	-19,	2,	-154,	107,	184,	133,	-13,	307,	117,	19,	146,	-2,	-88,	110,	270,	-84,	316,	84,	45,	-82,	-76,	-4,	-96,	71,	231,	71,	81,	-89,	1,	2,	-192,	-129,	-161,	-74,	25,	86,	226,	159,	76,	12,	16,	69,	-156,	150,	68,	166,	148,	92,	151,	45,	47,	23,	-12,	56,	76,	93,	119,	172,	106,	36,	-24,	-32,	-29,	-3,	149,	74,	142,	188,	72,	-65,	-50,	-80,	-56,	-20,	43,	19,	134,	269,	227,	34,	46,	30,	-105,	-114,	-43,	-98,	-15,	42,	168,	52,	11,	10,	-91,	-87,	-4,	194,	0,	311,	160,	136,	-4,	-94,	-183,	-191,	-228,	-261,	-253,	-149,	-68,	-7,	-115,	-43,	-93,	90,	61,	99,	240,	264,	245,	33,	-11,	-74,	51,	-164,	-21,	-245,	-94,	-138,	-84,	-134,	-106,	-10,	32,	50,	266,	277,	222,	221,	245,	17,	39,	-34,	-77,	-127,	-126,	-54,	-97,	-59,	1,	-57,	-18,	70,	91,	241,	151,	196,	313,	323,	238,	21,	8,	-157,	-172,	-264,	-66,	-29,	37,	-38,	52,	-72,	42,	145,	123,	276,	263,	167,	240,	307,	251,	86,	11,	-72,	-94,	-74,	38,	130,	69,	22,	30,	50,	238,	164,	68,	-23,	-43,	-141,	192,	318,	364,	77,	-26,	-64,	-105,	10,	95,	54,	50,	15,	-33,	8,	130,	166,	-1,	-24,	2,	58,	29,	241,	188,	66,	16,	-31,	-93,	23,	97,	-9,	56,	44,	-37,	-78,	-48,	-70,	0,	-20,	-28,	-74,	-91,	-9,	84,	-36,	18,	-29,	115,	196,	213,	196,	49,	50,	123,	-14,	-132,	-53,	-38,	30,	-26,	-28,	100,	88,	47,	-112,	-16,	10,	93,	277,	297,	33,	137,	-10,	82,	23,	-73,	-36,	-11,	-26,	43,	-20,	85,	9,	132,	-41,	-100,	-91,	-15,	297,	256,	268,	30,	9,	121,	87,	-15,	-90,	55,	-49,	-167,	66,	-21,	-9,	-73,	76,	-29,	-21,	-186,	223,	218,	256,	197,	66,	156,	-35,	-66,	-110,	-168,	-84,	-1,	41,	-4,	-60,	-46,	-7,	57,	-96,	-116,	-67,	253,	20,	108,	190,	-15,	-153,	-192,	-155,	-52,	-169,	102,	-30,	-50,	-97,	-77,	-146,	36,	-111,	-86,	125,	141,	204,	162,	71,	-33,	-106,	-82,	-18,	-188,	28,	88,	34,	61,	-95,	-55,	-147,
	26,	91,	81,	-80,	13,	118,	26,	44,	100,	28,	69,	91,	113,	64,	72,	26,	1,	-49,	78,	-129,	-10,	234,	55,	-114,	17,	135,	234,	158,	118,	-200,	5,	11,	99,	59,	-19,	-25,	-140,	87,	20,	32,	-87,	-65,	44,	-9,	-20,	11,	-35,	-18,	83,	119,	45,	117,	72,	39,	-44,	-171,	97,	48,	-13,	-61,	69,	-22,	-169,	-119,	-118,	-213,	-57,	-1,	15,	11,	32,	-116,	-95,	-55,	-19,	-82,	214,	-23,	-98,	-117,	-50,	4,	-223,	-90,	-287,	-170,	33,	35,	7,	-162,	19,	-51,	105,	127,	-27,	95,	116,	-59,	-112,	-148,	47,	-50,	-18,	-30,	-200,	-216,	-106,	-113,	-17,	-84,	93,	21,	100,	32,	38,	99,	-26,	41,	-121,	-229,	-24,	22,	24,	2,	-251,	-480,	-172,	-8,	-40,	98,	128,	120,	-20,	52,	1,	113,	182,	52,	62,	106,	-108,	-151,	-83,	-26,	-214,	-334,	-29,	75,	56,	82,	208,	287,	41,	151,	11,	131,	256,	175,	104,	10,	-23,	-68,	41,	-46,	-143,	-224,	112,	51,	64,	88,	142,	235,	70,	93,	127,	109,	130,	103,	61,	73,	-13,	-135,	101,	16,	29,	153,	224,	120,	100,	45,	153,	179,	78,	78,	85,	142,	158,	-1,	122,	11,	22,	-208,	1,	131,	73,	151,	201,	1,	-30,	-74,	-118,	113,	30,	-68,	-49,	-9,	69,	16,	-106,	3,	-47,	-113,	-17,	246,	183,	-18,	28,	-74,	-56,	-138,	-21,	60,	-84,	-61,	-75,	-123,	-138,	10,	-129,	-205,	43,	-78,	-50,	64,	-22,	-142,	-16,	-42,	-92,	-85,	-61,	-143,	-160,	-187,	-67,	-227,	-217,	33,	-196,	-348,	109,	-98,	56,	133,	-25,	-170,	-51,	32,	-44,	-36,	28,	-269,	-365,	-338,	-165,	-166,	-7,	-22,	-202,	-237,	72,	-5,	-61,	123,	-83,	-224,	-146,	-10,	-72,	-55,	-52,	-177,	-408,	-235,	-110,	-3,	7,	-50,	-12,	-129,	10,	-44,	-4,	-97,	-220,	-342,	-171,	-38,	9,	116,	-25,	-203,	-197,	-148,	10,	124,	-54,	46,	-18,	-110,	152,	123,	59,	-85,	-132,	-267,	-315,	-181,	-77,	-18,	155,	-16,	-213,	-291,	-145,	20,	140,	181,	135,	68,	-22,	-55,	16,	9,	115,	-222,	-287,	-172,	-56,	24,	81,	-79,	-174,	-307,	-186,	85,	255,	321,	285,	63,	-57,	34,	-23,	172,	-31,	-217,	-296,	-333,	-23,	158,	106,	-194,	-343,	-201,	-38,	315,	217,	283,	191,	-21,	65,	-19,	-8,	-183,	-93,	4,	-101,	-15,	78,	218,	147,	16,	-96,	-59,	254,	331,	369,	291,	170,	-33,
	5,	-24,	-36,	221,	143,	30,	87,	32,	112,	151,	146,	3,	72,	-111,	85,	98,	26,	18,	54,	156,	-39,	-1,	-82,	77,	231,	-12,	37,	142,	63,	-177,	57,	71,	11,	45,	141,	35,	-122,	47,	200,	85,	-149,	-15,	-4,	-168,	123,	255,	85,	123,	57,	-56,	-53,	86,	16,	168,	155,	211,	-139,	65,	-123,	-41,	-123,	-49,	-141,	-54,	113,	225,	302,	329,	286,	25,	-56,	-118,	-59,	-33,	234,	168,	154,	176,	-325,	69,	-53,	35,	-262,	-63,	78,	307,	265,	220,	182,	100,	-105,	-98,	-5,	26,	15,	33,	217,	-1,	-316,	-3,	13,	-7,	-233,	-269,	-8,	203,	251,	215,	260,	62,	-39,	49,	44,	71,	15,	18,	132,	203,	-214,	61,	13,	-51,	-291,	-148,	-102,	163,	195,	205,	188,	94,	-89,	-3,	62,	87,	100,	-53,	14,	67,	-342,	47,	25,	-53,	-320,	-126,	47,	66,	183,	203,	256,	136,	-40,	-105,	-12,	193,	48,	80,	78,	-129,	-304,	-89,	113,	-16,	-216,	-177,	-127,	110,	114,	142,	157,	24,	32,	-35,	-14,	130,	104,	94,	27,	-140,	-331,	-104,	-12,	-24,	-194,	-183,	-128,	-33,	99,	110,	120,	143,	93,	20,	6,	113,	70,	-68,	69,	-193,	-180,	141,	78,	-74,	-159,	-36,	-237,	-116,	-3,	-22,	161,	141,	142,	29,	59,	44,	101,	-33,	-31,	-231,	-151,	46,	-39,	-15,	-167,	-74,	-142,	-235,	-187,	-14,	45,	114,	155,	172,	41,	95,	-36,	-43,	-36,	-110,	-210,	207,	-37,	-13,	-63,	-38,	-210,	-261,	-208,	-204,	-62,	37,	59,	-64,	38,	3,	-50,	-160,	-87,	0,	-307,	-100,	43,	25,	-54,	-48,	-120,	-113,	-216,	-147,	-258,	-160,	-62,	-86,	-88,	-172,	-62,	-149,	-99,	-94,	-36,	-28,	78,	49,	-72,	-123,	-93,	-89,	-104,	-147,	-207,	-273,	-190,	49,	2,	-88,	-32,	78,	61,	-108,	-86,	-174,	104,	14,	-135,	-239,	-227,	-105,	-98,	-40,	-170,	-202,	-88,	111,	124,	-19,	-10,	97,	78,	-134,	-55,	-134,	-129,	82,	0,	-156,	-248,	-109,	21,	-86,	-77,	-246,	-193,	-36,	145,	106,	74,	156,	50,	26,	-18,	-127,	-60,	69,	239,	-136,	-373,	-231,	-84,	9,	-46,	-113,	-26,	87,	199,	-14,	188,	50,	60,	77,	8,	102,	16,	59,	92,	3,	-163,	-209,	-117,	-174,	-157,	-100,	27,	211,	342,	225,	173,	81,	-49,	83,	63,	88,	-169,	-130,	130,	55,	-143,	-159,	-56,	-55,	-95,	243,	225,	292,	422,	190,	108,	136,	-22,	80,	-49,	-18,
	-106,	-119,	109,	-124,	28,	32,	15,	-57,	-4,	-57,	-66,	-57,	83,	-42,	-47,	-41,	-13,	-6,	-183,	-100,	-29,	-153,	-78,	37,	-16,	-110,	-122,	-194,	-24,	-39,	-123,	-51,	-230,	-82,	-40,	207,	103,	31,	-15,	-57,	118,	58,	81,	-33,	5,	-214,	-352,	-178,	-31,	89,	-63,	-168,	-197,	-208,	-52,	109,	216,	209,	15,	-147,	3,	38,	149,	-93,	-110,	-294,	-357,	-122,	-183,	14,	9,	-62,	-293,	-343,	137,	262,	217,	248,	215,	-166,	-4,	152,	110,	37,	-124,	-360,	-284,	-86,	11,	-11,	157,	27,	-118,	-214,	-4,	303,	285,	512,	191,	12,	-15,	-51,	-22,	38,	-55,	-354,	-272,	-17,	105,	22,	120,	55,	-151,	-210,	-46,	221,	175,	148,	254,	70,	95,	-37,	27,	-7,	-98,	-285,	-201,	-21,	19,	103,	168,	-11,	-282,	-277,	-70,	217,	62,	56,	263,	105,	8,	-42,	122,	-245,	-97,	-191,	-42,	36,	96,	15,	162,	-52,	-386,	-370,	42,	195,	-45,	153,	225,	43,	-42,	85,	49,	-175,	-139,	-162,	-101,	40,	123,	-22,	29,	54,	-157,	-329,	-65,	194,	58,	202,	-46,	1,	18,	6,	-20,	-213,	-154,	-175,	-178,	69,	122,	73,	113,	-3,	-142,	-124,	145,	0,	-24,	99,	70,	52,	-33,	-6,	-110,	-271,	-69,	-144,	-186,	-88,	70,	82,	28,	61,	-97,	-39,	302,	195,	-20,	-28,	165,	191,	46,	-18,	-71,	-203,	-130,	-281,	-209,	-83,	74,	18,	91,	30,	-214,	-20,	216,	191,	-4,	-16,	39,	54,	47,	-32,	-111,	-214,	-77,	-70,	-140,	22,	43,	20,	43,	13,	-116,	-43,	144,	139,	-45,	19,	18,	103,	1,	19,	-33,	-116,	-75,	-120,	-244,	-62,	18,	-33,	12,	91,	-176,	-213,	149,	-51,	-104,	66,	35,	30,	9,	100,	121,	-56,	-15,	-97,	-213,	27,	8,	-102,	-102,	39,	3,	-78,	107,	25,	-88,	106,	63,	-58,	81,	116,	-54,	-24,	-2,	-188,	-208,	156,	133,	82,	51,	162,	-10,	-10,	-13,	-93,	-127,	15,	-212,	-74,	-46,	8,	91,	142,	28,	-72,	-192,	-40,	142,	211,	231,	12,	28,	160,	-74,	-14,	-23,	-276,	-65,	-34,	-17,	-98,	119,	24,	-8,	-135,	-156,	15,	34,	235,	108,	5,	82,	103,	-4,	46,	-318,	-164,	-176,	-14,	-104,	15,	168,	-16,	-39,	-183,	-152,	-180,	-76,	-26,	108,	173,	232,	121,	-114,	-97,	-426,	-253,	-125,	-34,	-13,	-48,	6,	-72,	-1,	-172,	-108,	-103,	-101,	18,	11,	211,	74,	101,	4,	-272,	-482,	-272,	-217,	11,
	-43,	58,	-216,	49,	24,	50,	-102,	-2,	-188,	-125,	-36,	-189,	-135,	-70,	-254,	-132,	-10,	-220,	-47,	31,	-3,	-20,	-154,	-59,	-1,	55,	-169,	-280,	-254,	-136,	-102,	-142,	-83,	101,	-4,	-141,	-66,	-32,	257,	119,	-9,	123,	-23,	-144,	-202,	-2,	17,	-100,	-7,	47,	37,	32,	-83,	-173,	-25,	-163,	-101,	-20,	208,	12,	51,	62,	-21,	-129,	-147,	37,	33,	113,	24,	154,	43,	79,	38,	-13,	-58,	-103,	-258,	-26,	260,	149,	-15,	133,	93,	-137,	-23,	137,	114,	-60,	90,	36,	36,	88,	61,	31,	110,	130,	-301,	-40,	269,	325,	127,	120,	28,	157,	174,	21,	97,	219,	137,	68,	41,	33,	84,	-26,	-2,	-180,	-175,	-75,	292,	214,	60,	-43,	47,	334,	24,	-67,	78,	72,	231,	59,	74,	107,	44,	-133,	-45,	-185,	-158,	42,	138,	202,	83,	58,	21,	84,	68,	96,	-53,	-17,	127,	50,	43,	-99,	-136,	-105,	-176,	-292,	-217,	69,	164,	186,	156,	-83,	-21,	105,	-30,	121,	47,	-68,	31,	-13,	-90,	-29,	-78,	-100,	-137,	-129,	-45,	12,	190,	197,	5,	39,	125,	119,	168,	158,	-26,	16,	-3,	-57,	-67,	-152,	-44,	-133,	-46,	-93,	7,	133,	173,	127,	91,	120,	27,	94,	167,	111,	33,	-31,	-2,	-42,	-141,	-160,	-147,	-86,	-13,	42,	24,	236,	187,	223,	43,	99,	37,	12,	118,	155,	15,	-40,	19,	-212,	-162,	-207,	-176,	56,	93,	276,	110,	34,	237,	276,	45,	4,	-51,	-5,	159,	72,	8,	51,	33,	-32,	-190,	-116,	-52,	-30,	136,	45,	2,	-108,	93,	-86,	-4,	56,	-55,	-25,	-64,	-1,	63,	70,	214,	80,	-46,	-118,	-92,	75,	22,	-161,	-68,	-71,	1,	-194,	38,	34,	-16,	-11,	-62,	-28,	90,	166,	375,	209,	-56,	-20,	30,	-87,	-92,	31,	-85,	-138,	24,	-146,	22,	-18,	-24,	20,	-38,	145,	200,	163,	277,	90,	25,	-210,	70,	-153,	-58,	-50,	-41,	-40,	104,	-167,	-52,	-68,	-150,	-119,	-176,	115,	130,	157,	167,	154,	-89,	-41,	35,	-21,	-24,	-14,	-29,	-40,	-61,	-18,	-146,	31,	-64,	-46,	-30,	24,	132,	301,	358,	159,	23,	9,	158,	49,	35,	-72,	-138,	1,	-58,	37,	-105,	66,	-73,	-4,	-88,	174,	202,	376,	478,	194,	82,	185,	202,	-219,	22,	-150,	20,	-173,	-92,	5,	75,	50,	-200,	-11,	37,	34,	-30,	150,	208,	157,	79,	105,	406,	-62,	-80,	5,	-17,	-206,	-15,	117,
	30,	-38,	-74,	73,	159,	51,	28,	33,	50,	17,	52,	184,	73,	-72,	142,	-48,	-19,	-65,	-32,	19,	23,	38,	76,	206,	157,	-42,	-56,	129,	40,	2,	32,	170,	189,	140,	-4,	53,	-90,	40,	9,	-68,	-1,	-17,	-129,	-107,	166,	174,	92,	185,	243,	-174,	-137,	7,	67,	140,	-13,	-37,	118,	-23,	-91,	-61,	-22,	6,	-84,	-84,	24,	179,	97,	71,	203,	-139,	-191,	40,	-14,	62,	143,	-60,	69,	-75,	-100,	44,	76,	-63,	-102,	-188,	-25,	225,	209,	72,	176,	-81,	-177,	-33,	66,	137,	59,	137,	7,	-273,	-113,	-72,	5,	34,	-145,	-241,	59,	189,	116,	209,	49,	-94,	-243,	-100,	49,	81,	-47,	167,	59,	-41,	52,	6,	6,	-45,	-95,	-220,	61,	235,	73,	164,	51,	-160,	-256,	-85,	133,	148,	-24,	103,	77,	-72,	-210,	101,	57,	-22,	-204,	-190,	121,	206,	14,	178,	81,	-226,	-275,	-95,	53,	68,	73,	167,	167,	-27,	122,	44,	-35,	42,	-236,	-146,	65,	181,	27,	77,	-35,	-120,	-159,	49,	3,	217,	123,	45,	78,	-70,	55,	74,	57,	-1,	-159,	-67,	83,	77,	-90,	133,	78,	-82,	-167,	100,	167,	167,	76,	110,	54,	-5,	-116,	96,	48,	-26,	-118,	30,	157,	0,	115,	128,	28,	-219,	-190,	76,	294,	175,	128,	61,	48,	4,	-34,	-15,	-25,	-100,	15,	-127,	-80,	53,	83,	113,	-30,	-148,	-100,	180,	232,	74,	2,	16,	111,	-25,	-45,	-2,	75,	-23,	-29,	-59,	-34,	72,	-122,	129,	-82,	-290,	-202,	37,	136,	-17,	29,	-64,	-101,	-94,	-165,	-125,	-26,	-66,	41,	-151,	125,	-33,	-76,	99,	-96,	-375,	-258,	-90,	-26,	10,	-38,	-3,	-191,	-238,	-112,	-128,	30,	-33,	-107,	-210,	181,	80,	-84,	2,	-103,	-350,	-176,	-34,	133,	23,	-20,	-81,	-286,	-162,	-21,	-134,	39,	-38,	-166,	41,	15,	124,	60,	-54,	-23,	-185,	-139,	8,	133,	45,	46,	-20,	-282,	-224,	-85,	-69,	26,	27,	118,	-114,	157,	183,	-162,	-66,	-19,	-246,	-164,	55,	206,	37,	95,	-122,	-247,	-154,	-116,	-17,	45,	-67,	-23,	-99,	-141,	71,	12,	81,	-23,	60,	-63,	73,	176,	266,	24,	-162,	-7,	-81,	-34,	136,	55,	15,	-93,	-154,	-158,	-140,	-29,	-2,	17,	106,	90,	333,	317,	191,	1,	-49,	-140,	-70,	-27,	-8,	-97,	32,	37,	6,	-104,	-203,	-122,	-140,	74,	18,	358,	287,	290,	230,	201,	49,	27,	59,	-8,	-66,
	-7,	90,	142,	-8,	7,	95,	43,	37,	39,	-53,	-77,	80,	28,	-32,	-103,	1,	18,	-21,	-70,	-89,	78,	92,	74,	56,	134,	57,	151,	298,	200,	-170,	67,	13,	261,	158,	-100,	33,	-36,	61,	55,	-52,	-117,	-20,	-40,	-81,	-56,	56,	73,	264,	190,	53,	-19,	-81,	6,	25,	-128,	-281,	-101,	15,	-61,	-12,	-115,	-14,	41,	-25,	-166,	-27,	238,	142,	-25,	-52,	69,	96,	97,	96,	-74,	-124,	42,	74,	-244,	49,	103,	-22,	-188,	-61,	-293,	-83,	161,	67,	55,	-18,	25,	-51,	-87,	6,	-62,	-316,	-165,	-72,	-185,	43,	-19,	-153,	16,	-200,	-245,	31,	-43,	114,	-83,	52,	142,	-22,	106,	94,	28,	-95,	-84,	-118,	-186,	99,	-53,	-144,	2,	-222,	-224,	-146,	-24,	-45,	-29,	-39,	126,	85,	-1,	-32,	67,	90,	-62,	-129,	-227,	36,	79,	-80,	-78,	-190,	-188,	-55,	-69,	-53,	-50,	41,	92,	79,	-8,	-34,	-14,	14,	-41,	-7,	-196,	37,	96,	-69,	91,	-159,	-174,	66,	-15,	-138,	2,	86,	103,	30,	-32,	-5,	12,	3,	-115,	102,	-34,	8,	49,	-25,	47,	-93,	-121,	97,	39,	-4,	136,	128,	163,	-43,	-46,	57,	26,	191,	12,	95,	134,	-129,	89,	-48,	41,	-106,	-20,	20,	87,	99,	194,	177,	25,	21,	-24,	100,	135,	189,	165,	129,	16,	-36,	94,	-24,	-50,	6,	-70,	32,	164,	171,	151,	91,	14,	86,	-109,	112,	131,	136,	90,	239,	117,	-34,	117,	-37,	-127,	-21,	57,	19,	89,	14,	21,	28,	-138,	-238,	-99,	29,	54,	-14,	54,	233,	248,	-18,	145,	-36,	98,	47,	195,	103,	193,	13,	42,	-68,	-361,	-412,	-202,	-78,	-92,	-139,	47,	144,	70,	-147,	-4,	-21,	-29,	-24,	227,	160,	140,	81,	106,	-87,	-315,	-219,	-118,	-78,	-184,	-44,	82,	173,	89,	-71,	-109,	-43,	-181,	88,	248,	254,	119,	134,	47,	-218,	-259,	-261,	5,	-58,	-114,	-42,	-38,	187,	65,	-107,	-43,	-91,	-73,	99,	94,	248,	134,	43,	-106,	-85,	-268,	-159,	59,	-37,	-45,	-114,	198,	161,	34,	-25,	-88,	75,	-70,	46,	195,	86,	290,	123,	40,	-89,	-178,	-247,	-63,	-67,	34,	-73,	97,	33,	-86,	22,	32,	3,	-27,	126,	306,	200,	306,	164,	-13,	-226,	-222,	-213,	-11,	-175,	-253,	-107,	75,	32,	-33,	-13,	-50,	61,	58,	191,	103,	-19,	177,	178,	-94,	91,	-90,	-208,	41,	-44,	-60,	58,	32,	-108,	-207,	-139,
	-9,	-192,	-117,	-216,	56,	-50,	0,	-34,	77,	-48,	15,	-68,	-13,	-123,	-137,	-236,	-58,	-243,	-86,	-113,	-33,	-82,	-110,	-252,	-120,	9,	40,	-240,	-241,	-116,	-190,	-3,	-171,	32,	-75,	10,	62,	76,	143,	-121,	0,	-102,	-258,	-241,	-29,	-20,	-47,	-151,	-90,	-287,	-308,	-195,	-208,	146,	289,	266,	305,	121,	80,	-156,	103,	-62,	-87,	-115,	-160,	51,	77,	-33,	-73,	-236,	-418,	-221,	-127,	-7,	201,	95,	222,	196,	379,	-37,	0,	134,	-22,	-51,	-175,	21,	100,	-21,	-168,	-185,	-345,	-148,	-205,	-110,	-25,	142,	492,	451,	309,	-36,	59,	-56,	-28,	6,	-159,	-82,	-11,	-10,	-102,	-232,	-333,	-206,	-90,	-47,	-60,	153,	358,	361,	282,	8,	48,	-25,	37,	139,	28,	-14,	-40,	-26,	-115,	-116,	-322,	-302,	-56,	-63,	-156,	11,	173,	135,	298,	41,	14,	-20,	49,	193,	28,	50,	-81,	-78,	-148,	-170,	-204,	-152,	-65,	-181,	88,	-50,	91,	205,	198,	71,	77,	-15,	52,	100,	1,	-91,	-122,	-74,	-101,	27,	-219,	34,	30,	-45,	16,	12,	278,	232,	120,	97,	-3,	-96,	55,	144,	206,	-77,	-43,	182,	-1,	-58,	-100,	52,	60,	11,	60,	-58,	211,	132,	97,	2,	72,	-36,	83,	70,	117,	93,	126,	89,	78,	-106,	2,	-11,	65,	-5,	131,	-12,	48,	74,	96,	108,	68,	26,	82,	90,	-38,	99,	59,	89,	57,	-1,	74,	-1,	-20,	51,	8,	98,	61,	-8,	20,	99,	-23,	-36,	130,	23,	-12,	46,	161,	83,	165,	36,	-11,	26,	74,	-51,	70,	26,	-129,	-61,	-32,	-69,	-63,	-17,	19,	-50,	-24,	89,	74,	68,	102,	6,	112,	67,	-12,	126,	157,	40,	100,	111,	274,	48,	63,	58,	-9,	-71,	-149,	61,	77,	115,	-29,	-45,	157,	110,	7,	167,	279,	168,	-32,	-72,	151,	-1,	100,	22,	107,	-66,	-42,	-33,	114,	111,	183,	72,	118,	-12,	-65,	49,	174,	77,	0,	114,	145,	39,	33,	-82,	115,	-76,	77,	67,	-9,	25,	-52,	-52,	-41,	6,	-118,	-54,	144,	120,	31,	223,	194,	-70,	-50,	-176,	-30,	-101,	-54,	109,	138,	-88,	-62,	-49,	-64,	-163,	-354,	9,	184,	177,	106,	144,	39,	143,	-20,	-129,	-97,	-104,	-164,	91,	-58,	-111,	-387,	-38,	3,	-136,	-153,	-5,	188,	78,	207,	127,	98,	24,	130,	-88,	-60,	-172,	-133,	127,	-84,	-105,	-226,	10,	39,	-30,	-119,	125,	68,	68,	187,	256,	284,	-25,
	-144,	-147,	-52,	-166,	65,	-62,	72,	13,	82,	60,	30,	-29,	-41,	108,	66,	85,	-100,	204,	167,	-66,	-27,	8,	-63,	28,	60,	-167,	-263,	-290,	-146,	-76,	-94,	-191,	-263,	-139,	-96,	-15,	-107,	-29,	98,	-79,	78,	31,	148,	41,	-154,	-209,	-207,	-53,	-97,	58,	-54,	-155,	-94,	33,	-204,	-176,	-10,	26,	-166,	-184,	33,	168,	104,	-70,	-74,	-219,	-148,	52,	-80,	-111,	-72,	-183,	-154,	-84,	-7,	-37,	-61,	26,	-70,	-62,	24,	71,	-131,	-77,	19,	-34,	28,	-19,	-90,	-197,	-70,	-223,	-161,	-92,	12,	-95,	-116,	-217,	-115,	-93,	14,	142,	-224,	-226,	-92,	-121,	-51,	28,	53,	-90,	-99,	-120,	-76,	-173,	-3,	-50,	-156,	-359,	-165,	-36,	-20,	24,	-132,	-21,	-32,	69,	-24,	-64,	-70,	-168,	-148,	-121,	-76,	-110,	-128,	-157,	-125,	-278,	-311,	-119,	20,	40,	-214,	-33,	122,	11,	80,	38,	48,	7,	-59,	-168,	-181,	-187,	-224,	-214,	-322,	-361,	-359,	-149,	-70,	176,	-83,	-69,	-3,	24,	208,	190,	190,	100,	61,	12,	-55,	-161,	-211,	-266,	-211,	-259,	-224,	-91,	-48,	30,	-153,	-15,	18,	99,	193,	202,	227,	47,	174,	27,	59,	-18,	-163,	-207,	-179,	-236,	-163,	-51,	-73,	121,	-20,	51,	-88,	62,	40,	141,	168,	65,	62,	58,	78,	-21,	29,	-297,	-327,	-320,	-162,	-72,	74,	-76,	-98,	-49,	17,	-49,	112,	105,	114,	94,	113,	165,	134,	187,	55,	-40,	-276,	-320,	-279,	-81,	-21,	19,	-28,	-8,	0,	-10,	-35,	27,	-53,	116,	121,	62,	187,	209,	138,	101,	-139,	-99,	-47,	41,	83,	-33,	89,	50,	-29,	5,	-50,	-18,	-9,	63,	4,	136,	164,	165,	227,	190,	22,	-5,	106,	141,	1,	-45,	-167,	-62,	-58,	-75,	-102,	42,	-125,	76,	104,	73,	151,	56,	166,	198,	-6,	-3,	-62,	46,	-63,	-13,	-40,	-163,	-139,	-12,	-9,	20,	-17,	109,	-88,	27,	203,	18,	133,	116,	-40,	72,	105,	39,	-87,	-100,	76,	-178,	-40,	-315,	-55,	-77,	78,	8,	28,	-37,	82,	184,	-66,	-72,	125,	52,	140,	73,	16,	-69,	298,	-202,	-137,	-184,	-284,	53,	17,	-87,	-158,	-152,	76,	76,	-36,	77,	6,	-24,	-11,	34,	0,	53,	162,	-151,	-23,	-167,	-87,	-248,	-184,	-129,	-199,	-36,	-45,	310,	-63,	-67,	7,	-92,	-36,	231,	32,	18,	164,	-112,	-83,	-67,	-74,	-104,	-70,	-41,	39,	-9,	-77,	157,	-39,	-4,	-125,	-119,	74,	196,
	-80,	-130,	32,	0,	-20,	-101,	-48,	-25,	12,	-96,	-46,	43,	118,	24,	126,	-85,	17,	19,	-18,	-20,	15,	-38,	-26,	25,	119,	154,	317,	91,	13,	27,	174,	122,	-118,	-40,	174,	205,	88,	41,	-6,	-164,	157,	13,	79,	86,	158,	-54,	-126,	100,	77,	-184,	-79,	-146,	-143,	91,	128,	220,	-253,	-31,	-140,	-151,	7,	-43,	51,	169,	139,	166,	34,	-32,	-57,	-180,	-220,	-138,	-140,	-39,	148,	-2,	-208,	-48,	-22,	-98,	-7,	-87,	182,	66,	51,	182,	179,	-27,	-105,	-118,	-62,	-104,	26,	-24,	-1,	-3,	-201,	-209,	-97,	-128,	69,	18,	32,	99,	36,	46,	21,	-5,	-47,	-149,	-233,	-37,	43,	24,	104,	115,	-88,	-401,	-114,	-228,	96,	85,	-11,	-52,	68,	169,	-49,	-89,	-79,	-177,	-187,	-30,	184,	128,	-13,	39,	-120,	-527,	-379,	-214,	63,	36,	5,	-173,	-87,	26,	95,	-11,	-153,	-151,	-242,	-27,	180,	40,	64,	-16,	-115,	-610,	-231,	-241,	-13,	48,	-185,	-215,	56,	26,	12,	64,	-21,	-294,	-136,	87,	186,	158,	199,	73,	-44,	-435,	-323,	-73,	-33,	-56,	-55,	-256,	-103,	-143,	-36,	-6,	88,	-61,	101,	124,	94,	194,	33,	43,	93,	-507,	-219,	-105,	60,	39,	-79,	-167,	-155,	-214,	-64,	9,	37,	38,	126,	121,	289,	121,	27,	-29,	-47,	-492,	-92,	-101,	25,	5,	63,	-219,	-156,	-150,	-135,	-67,	53,	171,	208,	247,	217,	79,	-143,	-105,	72,	-154,	46,	-156,	3,	-93,	-35,	-83,	-127,	-112,	-31,	109,	70,	-16,	26,	38,	149,	92,	155,	153,	-68,	72,	-166,	114,	58,	41,	137,	-73,	-36,	11,	83,	69,	-4,	-133,	-141,	96,	191,	189,	124,	176,	93,	76,	125,	151,	38,	98,	129,	-91,	16,	161,	177,	67,	24,	-11,	-183,	-19,	111,	29,	180,	88,	-159,	-85,	129,	263,	73,	-62,	172,	178,	-77,	174,	77,	13,	3,	-15,	-158,	-47,	-57,	-36,	17,	-35,	-112,	-24,	-91,	305,	-37,	61,	126,	314,	297,	207,	95,	56,	-25,	-23,	-168,	-108,	-111,	-21,	-50,	-163,	15,	-221,	-4,	86,	120,	5,	13,	273,	308,	331,	118,	-95,	6,	-78,	-202,	-228,	-143,	-113,	-184,	-278,	-177,	-171,	-13,	96,	19,	103,	-65,	249,	128,	239,	161,	-64,	-164,	-93,	153,	-24,	-128,	-36,	-227,	-227,	-175,	-48,	69,	223,	-16,	76,	69,	121,	113,	126,	137,	-104,	-92,	-82,	-128,	32,	-42,	-88,	-233,	-284,	-238,	20,	99,	98,
	-29,	-38,	229,	-11,	-93,	88,	98,	64,	27,	96,	113,	5,	36,	140,	119,	82,	-1,	86,	-84,	-188,	-107,	86,	77,	120,	-30,	257,	122,	303,	62,	-20,	28,	77,	278,	-28,	228,	44,	-91,	-14,	27,	-17,	-96,	-57,	-89,	137,	160,	97,	-122,	117,	-60,	-194,	-6,	84,	105,	103,	80,	265,	-203,	-132,	-132,	-130,	-41,	-1,	-30,	74,	55,	179,	142,	98,	183,	18,	-82,	141,	44,	63,	151,	47,	-186,	-16,	-136,	-186,	-94,	-10,	-7,	-34,	79,	190,	173,	69,	167,	159,	79,	19,	178,	29,	81,	-179,	-140,	106,	-173,	-282,	-39,	-44,	-14,	318,	-6,	158,	134,	95,	120,	54,	17,	111,	84,	75,	59,	184,	81,	163,	138,	-165,	-45,	54,	11,	225,	-29,	72,	61,	102,	-19,	42,	56,	32,	34,	146,	148,	34,	73,	246,	135,	-42,	41,	-48,	-12,	56,	-118,	-70,	-87,	-114,	-135,	8,	-56,	78,	143,	117,	178,	157,	253,	176,	26,	-75,	-62,	-58,	-129,	-165,	-149,	-301,	-255,	-160,	-155,	-6,	127,	35,	50,	82,	118,	212,	107,	217,	83,	-68,	-15,	-58,	-266,	-70,	-14,	-213,	-228,	-193,	-38,	38,	67,	100,	96,	62,	-165,	50,	-67,	-19,	123,	-185,	9,	-101,	-200,	-116,	-9,	-223,	-210,	-117,	89,	47,	117,	-11,	116,	56,	-52,	15,	92,	39,	-130,	-137,	22,	-87,	-152,	-73,	50,	-72,	-129,	-50,	56,	8,	102,	51,	-28,	-41,	-184,	-222,	172,	27,	-120,	4,	67,	-18,	-160,	81,	12,	13,	0,	53,	-67,	47,	37,	-46,	-21,	-22,	-34,	-26,	0,	-100,	-281,	91,	-69,	38,	-27,	92,	141,	130,	84,	26,	-127,	-106,	-131,	-243,	-24,	14,	21,	61,	-34,	-162,	-102,	99,	72,	-61,	35,	319,	256,	178,	46,	-45,	-32,	-181,	-379,	-196,	59,	20,	81,	80,	25,	90,	9,	66,	101,	-83,	-70,	344,	284,	219,	45,	-122,	-63,	-250,	-428,	-62,	-44,	85,	96,	122,	82,	62,	-130,	-12,	130,	-22,	-66,	397,	219,	256,	11,	71,	86,	-317,	-408,	-136,	-49,	76,	162,	70,	20,	-20,	-103,	-1,	-22,	-38,	-42,	226,	233,	346,	36,	92,	-57,	-207,	-66,	-94,	-117,	138,	184,	-6,	-62,	-42,	-64,	43,	61,	3,	-49,	239,	172,	317,	61,	228,	213,	168,	130,	-2,	262,	266,	142,	-177,	-120,	-37,	-48,	-67,	-25,	24,	37,	149,	78,	156,	80,	260,	288,	82,	185,	280,	84,	186,	236,	-99,	-143,	-5,	-114,	-30,
	62,	157,	67,	74,	135,	12,	68,	-15,	35,	-43,	-55,	79,	74,	-41,	-61,	-45,	-67,	8,	-28,	34,	14,	152,	14,	82,	-40,	-22,	-31,	-83,	-118,	-58,	-16,	150,	5,	173,	-215,	-131,	-70,	93,	-95,	78,	57,	-61,	-14,	11,	-71,	-249,	-317,	-61,	-44,	149,	269,	109,	48,	32,	-132,	-244,	88,	180,	39,	125,	-46,	1,	-71,	-47,	-325,	-229,	-256,	-94,	-15,	226,	275,	31,	-134,	-130,	-6,	-148,	89,	150,	-224,	33,	-29,	-116,	-75,	-131,	-232,	-157,	-93,	76,	76,	182,	155,	23,	2,	35,	48,	-1,	56,	16,	-170,	99,	-12,	-78,	77,	-55,	-292,	-46,	-97,	57,	114,	70,	58,	43,	-43,	-38,	-11,	87,	-5,	123,	-54,	134,	15,	-22,	40,	-140,	-85,	23,	-49,	47,	55,	51,	146,	-11,	-84,	-2,	46,	106,	180,	23,	-73,	104,	6,	-73,	-193,	-111,	-95,	-24,	27,	86,	77,	114,	-24,	11,	-29,	77,	15,	125,	136,	105,	53,	-15,	-50,	17,	-102,	59,	-33,	13,	2,	-53,	109,	9,	-143,	-2,	195,	102,	119,	267,	185,	57,	46,	48,	-37,	-59,	-48,	84,	15,	4,	2,	126,	17,	78,	-19,	62,	170,	36,	14,	291,	95,	-34,	99,	150,	-4,	58,	-31,	73,	38,	2,	27,	85,	14,	-31,	-35,	83,	57,	34,	34,	142,	241,	-91,	185,	72,	9,	61,	75,	6,	69,	82,	55,	70,	-37,	-51,	-83,	104,	-29,	-205,	-221,	-61,	12,	62,	44,	-3,	-64,	70,	87,	-37,	201,	102,	54,	125,	-17,	-40,	-64,	-91,	-142,	-199,	-156,	-128,	-20,	116,	192,	2,	72,	79,	15,	34,	56,	106,	-8,	129,	39,	14,	62,	-139,	-40,	-93,	-89,	-114,	-29,	-16,	-3,	-133,	-10,	40,	79,	124,	187,	134,	199,	90,	-4,	36,	64,	-49,	-8,	-155,	-150,	-110,	0,	-7,	-108,	-118,	-40,	62,	13,	-55,	119,	102,	135,	135,	64,	133,	-38,	-11,	29,	-13,	-7,	-155,	-146,	-87,	-127,	-158,	-89,	53,	-70,	62,	128,	202,	80,	137,	185,	188,	146,	-45,	-34,	-28,	-112,	-7,	-45,	-175,	-154,	-100,	24,	86,	-188,	110,	94,	122,	-28,	50,	45,	38,	57,	27,	-9,	-165,	-127,	-174,	-137,	-169,	-245,	-272,	46,	-78,	-91,	-5,	50,	-60,	-104,	120,	325,	177,	100,	-270,	-130,	-283,	-422,	-321,	-173,	-257,	-255,	-194,	117,	70,	-216,	98,	160,	132,	116,	18,	303,	78,	16,	-133,	-85,	-160,	-285,	-327,	-291,	-303,	-316,	-180,
	117,	184,	31,	197,	-7,	-59,	83,	34,	127,	1,	89,	93,	-7,	-23,	18,	67,	-31,	126,	117,	24,	-61,	8,	51,	188,	79,	-120,	141,	-182,	-93,	-174,	-197,	-145,	42,	16,	73,	-35,	61,	12,	54,	-58,	7,	68,	148,	244,	201,	-101,	-128,	-123,	-67,	-144,	-23,	52,	166,	-4,	85,	89,	-144,	-204,	82,	-65,	-119,	-65,	-21,	184,	-14,	-294,	-84,	-87,	-80,	33,	178,	325,	388,	41,	129,	-45,	-123,	-84,	136,	-43,	4,	-84,	193,	280,	-231,	-177,	-182,	-6,	-45,	124,	116,	288,	258,	119,	235,	58,	4,	-168,	43,	115,	-46,	10,	161,	82,	-146,	-110,	-97,	-219,	30,	-18,	68,	247,	111,	230,	262,	167,	-10,	-35,	-38,	-98,	43,	-93,	76,	49,	-8,	27,	34,	12,	-43,	83,	130,	174,	144,	205,	226,	201,	273,	23,	-65,	-70,	34,	-46,	-10,	192,	-50,	146,	193,	24,	-95,	-112,	-91,	-75,	-187,	-66,	-43,	120,	177,	87,	11,	-209,	-60,	-61,	32,	234,	78,	135,	99,	65,	-45,	-42,	-29,	34,	-185,	-167,	-267,	-17,	62,	129,	-33,	-146,	48,	-47,	24,	173,	146,	98,	74,	46,	122,	135,	84,	98,	-63,	-134,	-100,	-29,	7,	71,	-134,	-93,	-18,	-53,	-39,	142,	267,	-28,	2,	25,	136,	126,	226,	-26,	-5,	-161,	-21,	-62,	-72,	-83,	-195,	-181,	-106,	48,	10,	144,	61,	-38,	-7,	0,	142,	294,	188,	78,	-8,	-46,	-27,	-108,	-165,	-163,	-123,	-155,	-17,	22,	120,	180,	104,	113,	79,	75,	7,	44,	2,	-89,	-176,	-172,	-99,	-115,	-111,	-171,	-67,	39,	-30,	-15,	-111,	204,	10,	70,	21,	27,	1,	47,	-24,	-245,	-146,	-75,	-141,	-28,	-117,	37,	9,	-51,	88,	3,	103,	181,	47,	36,	78,	36,	67,	-68,	-101,	-32,	-34,	-111,	13,	-67,	-45,	6,	115,	66,	-37,	-12,	108,	106,	162,	-97,	-20,	-105,	-39,	-143,	-184,	-5,	-132,	-115,	-156,	-148,	-48,	4,	58,	69,	37,	14,	77,	34,	54,	19,	133,	101,	-52,	-121,	-135,	72,	21,	-156,	-130,	-207,	-31,	202,	156,	77,	-3,	8,	180,	-29,	-156,	58,	55,	8,	46,	-109,	124,	-32,	51,	-107,	-310,	-58,	11,	257,	95,	58,	14,	130,	-44,	-48,	4,	58,	78,	10,	-237,	-190,	-200,	-67,	-114,	-342,	-308,	-85,	36,	237,	4,	-24,	-22,	146,	38,	-62,	-45,	-146,	-75,	-61,	-229,	-222,	-137,	-13,	8,	-81,	-126,	50,	185,	228,	-74,	87,
	-10,	-68,	-63,	72,	-11,	-21,	-110,	-143,	-119,	-65,	-47,	-118,	-180,	31,	222,	101,	-12,	246,	38,	21,	-100,	-51,	20,	-168,	-116,	-114,	-114,	-112,	40,	18,	46,	59,	-6,	-93,	-65,	-6,	38,	50,	-189,	-35,	-35,	-58,	-118,	-200,	12,	-45,	15,	16,	-138,	-213,	-102,	-67,	28,	-109,	-69,	-3,	-27,	15,	5,	27,	-30,	-19,	-11,	-131,	-126,	33,	145,	34,	181,	4,	-27,	112,	121,	259,	-10,	33,	-1,	-68,	-7,	-130,	15,	-29,	-43,	-161,	20,	159,	-3,	96,	132,	115,	6,	45,	106,	175,	57,	-31,	-96,	105,	-17,	-188,	81,	-65,	-58,	-91,	159,	119,	218,	159,	140,	127,	54,	56,	89,	140,	138,	149,	107,	191,	223,	-158,	-57,	-33,	-88,	-9,	59,	157,	211,	113,	73,	203,	101,	-9,	22,	7,	-51,	-42,	-19,	109,	64,	-117,	8,	-56,	27,	-51,	80,	173,	170,	84,	-43,	-18,	23,	3,	12,	4,	113,	149,	125,	146,	7,	-82,	-16,	86,	36,	-35,	38,	-102,	52,	33,	8,	-248,	-170,	-201,	-87,	-99,	189,	118,	193,	228,	-169,	-49,	47,	18,	116,	44,	-41,	-244,	-78,	-240,	-194,	-188,	-296,	-244,	-218,	-9,	47,	-99,	193,	140,	-68,	-87,	-30,	136,	181,	119,	-104,	-217,	-217,	-151,	-83,	-111,	-87,	-123,	-140,	-65,	-13,	-102,	112,	113,	139,	-124,	-66,	56,	131,	137,	-56,	-247,	-274,	-82,	-19,	-5,	-91,	-69,	-29,	-148,	-158,	-196,	60,	-48,	160,	-285,	-34,	69,	59,	78,	-84,	-97,	-107,	72,	71,	87,	35,	79,	48,	181,	-68,	-65,	-110,	-195,	154,	66,	-68,	-36,	34,	-17,	13,	68,	50,	21,	130,	127,	85,	140,	158,	91,	81,	-4,	-122,	-96,	121,	103,	-39,	-24,	-6,	-21,	35,	267,	57,	199,	30,	43,	139,	291,	148,	192,	104,	50,	-133,	22,	7,	132,	-6,	19,	-63,	78,	-29,	36,	159,	5,	111,	140,	116,	314,	103,	160,	21,	-43,	19,	26,	-3,	149,	-12,	30,	68,	83,	198,	18,	93,	77,	71,	46,	59,	242,	54,	-7,	-27,	-6,	-92,	-70,	-73,	243,	-41,	-65,	41,	-99,	-125,	138,	3,	-34,	117,	119,	260,	202,	-45,	-84,	-97,	-83,	-91,	5,	-157,	117,	30,	-6,	-18,	-220,	-39,	-145,	67,	62,	30,	13,	105,	-13,	-43,	-165,	-20,	-149,	-34,	55,	2,	203,	-76,	90,	-149,	-128,	-11,	10,	-84,	-117,	89,	-89,	-63,	-50,	-17,	66,	-203,	-78,	19,	116,	13,	124,
	-21,	107,	-24,	215,	-85,	113,	-82,	102,	-31,	46,	42,	99,	-83,	81,	271,	173,	44,	81,	120,	-140,	-9,	58,	8,	119,	97,	167,	-120,	35,	201,	46,	217,	102,	132,	-73,	92,	31,	100,	-92,	149,	-117,	-114,	119,	158,	5,	14,	-26,	-93,	39,	-36,	2,	129,	119,	116,	103,	-23,	-62,	-160,	-118,	-48,	-252,	-26,	100,	29,	137,	41,	137,	50,	90,	29,	156,	140,	205,	150,	56,	112,	138,	-125,	-66,	-95,	-87,	-34,	96,	51,	40,	88,	-169,	-46,	51,	226,	152,	196,	95,	28,	99,	180,	29,	-78,	-164,	-60,	-109,	18,	38,	36,	160,	89,	-66,	-23,	36,	146,	107,	135,	188,	83,	65,	81,	133,	-46,	-42,	-71,	-109,	45,	105,	-11,	76,	-13,	-191,	10,	60,	172,	130,	171,	36,	75,	109,	82,	14,	-51,	-81,	-283,	-16,	52,	52,	-80,	68,	-93,	-61,	24,	-7,	19,	-48,	56,	-63,	-87,	-95,	3,	4,	-87,	-243,	-220,	-129,	5,	-79,	-63,	-116,	-14,	-108,	-20,	-92,	-120,	-67,	-40,	-152,	-129,	-50,	-108,	-200,	-179,	-222,	-238,	-151,	58,	-105,	-80,	-22,	23,	-37,	86,	-225,	-56,	-107,	36,	28,	-22,	-41,	-18,	-113,	-200,	-362,	-90,	-94,	-41,	-32,	-103,	-15,	56,	48,	14,	-71,	-31,	-46,	44,	-2,	-3,	54,	-61,	-92,	-231,	-224,	-149,	-69,	-63,	-94,	-168,	-3,	-11,	-26,	41,	-92,	-40,	57,	243,	41,	88,	-70,	-111,	-137,	-198,	-338,	-207,	-78,	74,	-14,	-243,	152,	-71,	-76,	-93,	-141,	-1,	51,	213,	191,	36,	-70,	-162,	-153,	-281,	-245,	-80,	-148,	72,	-90,	12,	-74,	-22,	-122,	-111,	-101,	-110,	63,	97,	211,	-8,	7,	-90,	40,	-18,	-248,	-42,	49,	109,	105,	-36,	-146,	-74,	-101,	-197,	-84,	-112,	14,	101,	17,	82,	33,	51,	177,	-66,	-97,	84,	-63,	98,	-57,	-60,	-96,	-96,	-185,	-136,	-137,	-201,	-159,	108,	178,	170,	108,	76,	-34,	17,	-50,	26,	92,	15,	95,	94,	-31,	119,	-291,	-144,	-178,	-138,	-61,	140,	286,	271,	150,	76,	36,	18,	102,	103,	38,	-2,	112,	110,	-159,	-160,	-68,	-160,	-123,	-143,	-6,	79,	303,	344,	230,	-169,	84,	38,	153,	149,	141,	8,	-89,	78,	-123,	-63,	-65,	-150,	-234,	-197,	28,	256,	191,	337,	271,	-61,	40,	136,	208,	98,	-51,	-187,	-22,	82,	34,	-219,	-188,	-188,	-87,	103,	170,	334,	178,	255,	99,	30,	285,	139,	271,	-4,	-44,
	-15,	102,	41,	200,	-77,	-4,	-95,	-82,	-142,	5,	-95,	-38,	-134,	151,	-227,	-61,	9,	86,	22,	-66,	-25,	46,	68,	65,	-3,	129,	-220,	-75,	-184,	-280,	-132,	-110,	26,	-14,	-116,	-124,	4,	53,	8,	17,	49,	-29,	96,	-102,	34,	65,	-19,	-48,	116,	248,	293,	162,	1,	-189,	-166,	-226,	-97,	-208,	24,	-70,	56,	-35,	67,	-49,	-52,	-160,	-48,	49,	156,	122,	80,	143,	171,	-64,	-205,	-310,	-359,	-148,	-67,	-58,	-38,	-67,	-171,	-72,	-111,	-8,	6,	155,	121,	231,	190,	112,	132,	84,	-14,	-95,	-327,	-325,	-106,	85,	-15,	11,	-178,	-76,	-100,	-53,	-20,	116,	172,	270,	163,	159,	69,	80,	-85,	-85,	-136,	-253,	37,	83,	-17,	-31,	-295,	-149,	-65,	-139,	63,	93,	183,	285,	149,	33,	55,	-133,	-21,	-144,	-160,	-88,	-278,	82,	-20,	-88,	-384,	-258,	-137,	102,	97,	97,	261,	191,	35,	-92,	-124,	-138,	-186,	-347,	-155,	-157,	-213,	118,	37,	-96,	-338,	-130,	-31,	-28,	57,	128,	129,	150,	-40,	-126,	-226,	-210,	-179,	-228,	-207,	-9,	78,	50,	4,	-65,	-170,	-47,	-94,	-87,	26,	12,	12,	96,	-83,	-167,	-227,	-122,	-109,	-135,	-151,	-35,	130,	89,	51,	-24,	-188,	45,	51,	-30,	128,	42,	-37,	54,	-160,	-106,	-125,	-148,	-53,	10,	-166,	25,	-16,	-15,	21,	-47,	-161,	74,	59,	33,	138,	-70,	18,	-67,	-158,	-108,	-158,	-72,	25,	-24,	0,	32,	114,	19,	29,	2,	-111,	41,	35,	104,	25,	-28,	74,	80,	-61,	-155,	-41,	7,	53,	24,	4,	-150,	354,	-65,	-38,	26,	-116,	36,	128,	117,	34,	96,	174,	229,	-12,	71,	-6,	-65,	33,	22,	-103,	51,	151,	50,	28,	72,	136,	130,	58,	2,	202,	113,	155,	-10,	-2,	54,	-75,	-47,	-38,	-30,	-33,	157,	9,	-9,	-2,	71,	-5,	146,	246,	199,	139,	232,	181,	-37,	-115,	-51,	-92,	-85,	-75,	-71,	-20,	46,	-42,	-56,	-95,	7,	31,	170,	123,	172,	236,	232,	128,	16,	-207,	-263,	-219,	-96,	55,	-110,	-18,	111,	-8,	37,	-36,	14,	72,	197,	67,	125,	170,	241,	236,	-86,	-75,	-153,	-149,	-55,	-57,	-43,	164,	-6,	-45,	73,	40,	136,	140,	90,	49,	215,	145,	159,	138,	-67,	-95,	-136,	-122,	-336,	88,	55,	163,	64,	127,	245,	246,	216,	92,	162,	61,	210,	76,	9,	-217,	-260,	-280,	-244,	-57,	-44,	110,	236,	304,	170,	220,	281,
	-82,	-110,	-115,	-34,	58,	125,	-51,	3,	-46,	-40,	-50,	-143,	-24,	-139,	-98,	-29,	-8,	-26,	-140,	-75,	-35,	-25,	-65,	-101,	154,	162,	-44,	-134,	-80,	-184,	-107,	-152,	12,	33,	-60,	-57,	-7,	24,	-108,	106,	-25,	-152,	-134,	-52,	-19,	-23,	14,	-41,	-61,	-25,	-131,	-232,	-119,	-173,	-28,	108,	-105,	-136,	82,	133,	53,	4,	43,	61,	200,	11,	-8,	-153,	-61,	-56,	-96,	-124,	-153,	-220,	-328,	104,	157,	-139,	81,	-26,	-71,	24,	-103,	68,	58,	-127,	-109,	-51,	16,	12,	-82,	5,	-53,	-16,	-178,	-120,	-99,	-26,	83,	90,	48,	-6,	96,	32,	-68,	-149,	-137,	-56,	28,	175,	99,	-26,	40,	-22,	-165,	-199,	-105,	-106,	0,	10,	0,	1,	40,	51,	-172,	-10,	-146,	-76,	28,	86,	49,	52,	-44,	-137,	-104,	-159,	-284,	-52,	152,	10,	58,	9,	46,	126,	-6,	-83,	-62,	-12,	30,	185,	195,	43,	-30,	-119,	-34,	-118,	-204,	-92,	7,	12,	20,	22,	75,	163,	99,	-99,	-78,	-3,	93,	236,	128,	98,	21,	-30,	-26,	-119,	-2,	-109,	-98,	41,	-31,	27,	22,	102,	45,	41,	-106,	22,	-24,	71,	58,	-73,	-101,	14,	129,	-16,	90,	75,	53,	-22,	-32,	73,	33,	232,	42,	68,	23,	124,	15,	-87,	-68,	-140,	-73,	-17,	109,	87,	93,	11,	-99,	-169,	11,	-4,	49,	309,	157,	78,	118,	95,	-28,	-172,	-180,	-207,	-119,	-30,	153,	286,	262,	206,	-135,	-113,	-27,	-39,	-46,	296,	227,	170,	65,	31,	-185,	-293,	-376,	-182,	-14,	261,	169,	206,	255,	92,	-63,	-193,	22,	-78,	26,	240,	166,	48,	74,	-2,	76,	-89,	-221,	99,	90,	232,	142,	265,	318,	172,	57,	10,	-30,	-60,	80,	19,	76,	121,	21,	46,	2,	-42,	-202,	72,	55,	51,	4,	87,	180,	118,	86,	64,	24,	21,	-78,	-86,	92,	121,	67,	-57,	-86,	-53,	8,	111,	-60,	-77,	-14,	-143,	160,	152,	205,	162,	80,	136,	0,	-40,	-31,	101,	-27,	-12,	-34,	72,	113,	34,	-2,	16,	-94,	71,	55,	241,	186,	73,	-88,	14,	-27,	-10,	253,	-28,	-67,	-118,	6,	125,	108,	-43,	-7,	-171,	-283,	73,	147,	215,	80,	71,	55,	64,	-25,	100,	394,	72,	-43,	-141,	67,	27,	76,	-43,	-198,	-79,	-49,	191,	135,	152,	78,	135,	-36,	-167,	-251,	-7,	164,	173,	160,	-65,	31,	-173,	-233,	-112,	-220,	14,	-64,	144,	170,	-69,	87,	180,
	36,	-13,	64,	262,	14,	-18,	139,	108,	97,	114,	135,	95,	81,	40,	207,	151,	81,	121,	49,	279,	98,	47,	-22,	-16,	14,	-30,	200,	351,	323,	187,	150,	191,	18,	-33,	277,	254,	12,	76,	-83,	161,	-29,	-18,	20,	-177,	-132,	-43,	-176,	-243,	-36,	167,	120,	42,	162,	251,	-7,	382,	172,	-11,	-18,	200,	-9,	-13,	-109,	-205,	61,	-21,	-228,	0,	36,	-21,	114,	33,	183,	189,	-69,	-47,	-25,	179,	-20,	231,	-24,	-19,	-95,	-147,	-17,	-232,	-242,	-170,	-44,	189,	-28,	39,	116,	79,	-129,	-34,	29,	100,	106,	256,	89,	-2,	-218,	-127,	131,	-14,	-45,	-203,	-28,	146,	187,	132,	155,	12,	-55,	-83,	94,	39,	248,	200,	-53,	-73,	-111,	-92,	75,	130,	75,	55,	52,	108,	244,	103,	-14,	193,	4,	-68,	-82,	17,	281,	73,	-40,	77,	-61,	-130,	129,	197,	134,	172,	50,	130,	186,	88,	-60,	-31,	-4,	-10,	-77,	-138,	337,	105,	57,	44,	-100,	53,	144,	104,	96,	-12,	-164,	-99,	14,	-139,	-193,	-116,	-113,	-13,	-129,	-54,	84,	115,	44,	31,	-27,	52,	216,	172,	-13,	-136,	-217,	-36,	64,	-71,	-204,	-192,	-237,	-135,	-89,	-62,	-27,	176,	-51,	100,	-30,	-26,	77,	47,	-104,	-189,	-166,	-169,	-76,	-42,	-125,	-135,	-246,	-179,	-85,	-161,	89,	176,	4,	0,	-84,	-91,	130,	27,	-49,	-67,	-173,	-53,	51,	-110,	-47,	12,	-76,	-33,	-54,	-253,	-11,	204,	95,	-12,	-15,	-80,	-108,	-37,	22,	9,	-160,	97,	158,	172,	143,	118,	13,	-98,	-24,	-41,	-104,	9,	25,	-33,	-15,	-171,	-145,	-154,	-75,	39,	-17,	-35,	83,	188,	133,	233,	183,	17,	-122,	-36,	-101,	-78,	44,	-24,	-42,	14,	-297,	-237,	-110,	19,	-124,	96,	102,	174,	17,	175,	222,	27,	-30,	65,	-35,	164,	106,	-41,	-91,	-195,	-102,	-313,	-214,	-199,	-84,	-10,	60,	124,	182,	85,	157,	7,	-170,	-30,	-146,	3,	26,	-63,	-32,	-98,	-190,	-265,	-104,	-76,	-107,	39,	118,	226,	74,	157,	88,	-84,	-115,	17,	18,	39,	79,	39,	125,	-137,	-117,	-266,	-349,	-172,	-115,	-188,	16,	95,	35,	21,	-30,	87,	-75,	-94,	-100,	17,	77,	114,	148,	-28,	36,	1,	-151,	-286,	33,	-100,	94,	-187,	12,	46,	99,	102,	16,	-31,	-116,	-35,	31,	67,	58,	22,	-29,	30,	-200,	-164,	35,	-31,	87,	24,	-3,	159,	-97,	-83,	-135,	-195,	-210,	59,
	-38,	-22,	-140,	-116,	38,	-37,	61,	102,	-96,	136,	129,	25,	30,	80,	-182,	-163,	-40,	-188,	-240,	-181,	8,	-91,	-158,	-252,	-50,	-92,	-54,	-39,	48,	-141,	-32,	164,	233,	55,	-200,	-369,	-65,	16,	-161,	-46,	3,	5,	-108,	-109,	-128,	-202,	9,	-68,	-61,	10,	112,	126,	85,	82,	-221,	-205,	-79,	-177,	187,	-35,	24,	12,	-66,	-96,	-253,	-46,	-11,	14,	28,	93,	121,	137,	166,	11,	-4,	-267,	-322,	-166,	158,	-61,	26,	98,	-47,	-22,	-120,	-11,	-34,	75,	-35,	-81,	-51,	93,	181,	150,	101,	147,	-121,	-122,	230,	77,	146,	-16,	163,	15,	-79,	-92,	-3,	-117,	-146,	-66,	60,	98,	188,	123,	166,	132,	-23,	-114,	-57,	-65,	84,	-37,	127,	187,	157,	-23,	-156,	-14,	-18,	-59,	22,	151,	120,	169,	193,	222,	114,	-53,	149,	-132,	138,	-12,	116,	241,	108,	43,	-23,	-93,	-73,	-99,	-168,	5,	97,	174,	167,	213,	293,	106,	230,	23,	-33,	-77,	127,	297,	346,	61,	-26,	-47,	-61,	-191,	-170,	-48,	-52,	97,	65,	152,	264,	218,	284,	-88,	-58,	43,	185,	300,	326,	227,	-23,	20,	47,	-216,	-192,	-123,	-56,	-3,	10,	117,	129,	267,	244,	-163,	-143,	-72,	78,	347,	240,	215,	147,	32,	12,	5,	-111,	-71,	-50,	-53,	-23,	-41,	0,	198,	107,	-209,	-21,	17,	122,	239,	185,	233,	180,	156,	155,	63,	-38,	-92,	11,	-116,	35,	-109,	-216,	79,	-2,	-354,	-51,	-23,	20,	97,	143,	26,	107,	125,	215,	9,	-47,	-47,	-52,	-192,	-189,	-161,	-81,	-118,	49,	-155,	-17,	-161,	-141,	-123,	21,	40,	171,	92,	54,	98,	-23,	-74,	-129,	-79,	-55,	-136,	-17,	-71,	88,	-106,	-83,	-41,	-142,	-164,	-187,	-57,	55,	93,	117,	206,	151,	189,	-29,	-17,	143,	122,	-11,	-79,	62,	-120,	-88,	-60,	13,	-381,	-461,	-175,	4,	30,	119,	78,	129,	101,	-95,	-64,	59,	70,	-21,	-2,	22,	7,	-16,	-157,	26,	-350,	-314,	-286,	-145,	76,	121,	71,	188,	108,	14,	15,	79,	35,	10,	52,	-32,	-8,	-42,	-89,	13,	-107,	-312,	-241,	-61,	71,	175,	80,	84,	131,	-94,	-165,	-147,	-152,	30,	175,	132,	75,	11,	-89,	-21,	-106,	-250,	-79,	-27,	69,	117,	-7,	-161,	37,	-186,	-510,	-459,	-222,	-41,	80,	81,	92,	80,	44,	-38,	-106,	-21,	54,	-45,	-70,	12,	-246,	-125,	-26,	-120,	-251,	-485,	-317,	-96,	-159,	89,	-13,
	-41,	86,	-39,	127,	-90,	-46,	-33,	38,	-33,	-132,	-31,	10,	-80,	131,	-21,	-22,	-73,	79,	11,	-23,	71,	4,	-63,	-51,	-220,	118,	-67,	-77,	9,	199,	-57,	-113,	99,	-1,	-86,	-286,	10,	-66,	-60,	190,	-13,	111,	39,	-191,	-313,	-115,	37,	-39,	-119,	317,	454,	146,	-67,	-202,	-379,	-413,	-48,	-103,	-52,	122,	-30,	145,	1,	-334,	-274,	-116,	-90,	-90,	-7,	187,	249,	198,	243,	-20,	-243,	-439,	-348,	-71,	-148,	115,	-112,	24,	51,	-540,	-278,	-316,	-109,	13,	-178,	73,	254,	203,	178,	124,	-16,	-231,	-441,	-317,	-189,	68,	-44,	92,	-29,	-230,	-265,	-68,	-70,	-90,	-85,	26,	242,	257,	268,	46,	72,	-119,	-237,	-491,	-365,	35,	82,	118,	-129,	-29,	-126,	-33,	-11,	-58,	-41,	-96,	224,	192,	138,	-35,	-102,	1,	-92,	-414,	-323,	-178,	1,	102,	-143,	-20,	-69,	-246,	-141,	-81,	69,	-9,	28,	137,	169,	188,	28,	-40,	-206,	-336,	-380,	-139,	-39,	43,	-119,	71,	-33,	-115,	-111,	-70,	50,	-66,	-57,	121,	174,	8,	58,	71,	-155,	-169,	-189,	-44,	-17,	1,	-27,	58,	-6,	-150,	-202,	31,	-26,	2,	-103,	49,	-15,	35,	44,	-33,	-138,	-64,	-239,	-60,	-27,	152,	-48,	90,	99,	-95,	-83,	-7,	-85,	-37,	-59,	83,	-115,	76,	19,	-3,	-169,	-78,	-132,	-127,	-72,	24,	-69,	108,	138,	-39,	16,	-19,	-58,	-65,	-192,	-62,	118,	143,	78,	-36,	-122,	-119,	-262,	-115,	-25,	0,	-56,	30,	-21,	-58,	14,	72,	-36,	-126,	-170,	6,	61,	126,	24,	29,	71,	51,	-78,	-102,	-29,	-95,	-153,	-50,	49,	-126,	-32,	139,	67,	26,	-76,	134,	256,	152,	71,	25,	53,	15,	-90,	-72,	-127,	-66,	-77,	39,	-98,	5,	-148,	29,	-25,	27,	132,	129,	178,	106,	-21,	-18,	-3,	9,	-26,	-45,	-95,	-130,	-88,	-275,	-105,	-63,	-9,	80,	-41,	-14,	112,	217,	109,	54,	42,	23,	-14,	-100,	-30,	-91,	52,	8,	-129,	-237,	-213,	-52,	-7,	7,	1,	102,	126,	238,	191,	160,	-73,	-22,	-135,	-256,	-83,	-34,	140,	120,	13,	-171,	-210,	-82,	-126,	10,	-23,	69,	24,	150,	193,	274,	-133,	-110,	-294,	-251,	-241,	-214,	-73,	-48,	71,	-39,	-13,	-103,	-108,	49,	171,	12,	245,	89,	380,	258,	-131,	-102,	-204,	-198,	-108,	-164,	97,	94,	-2,	-73,	10,	-22,	-54,	-68,	190,	20,	200,	154,	339,	-15,	-277,	-380,	-293,	-389,	-297,	-87,
	145,	49,	29,	-51,	41,	-59,	23,	49,	170,	124,	-8,	225,	139,	-103,	201,	137,	31,	262,	28,	111,	12,	53,	18,	-6,	61,	64,	-25,	213,	50,	-135,	64,	108,	202,	44,	64,	39,	-184,	25,	-63,	104,	69,	-17,	-138,	-104,	-52,	-203,	-3,	316,	134,	-85,	-127,	-45,	-25,	46,	38,	142,	74,	111,	-101,	161,	-29,	-34,	-62,	-136,	-138,	-34,	23,	232,	177,	29,	47,	-26,	-80,	-71,	106,	265,	202,	-73,	-85,	151,	54,	-107,	-110,	-123,	-79,	-88,	44,	97,	187,	-3,	-23,	-104,	25,	-29,	123,	86,	131,	256,	12,	88,	26,	-59,	-141,	-98,	-67,	-117,	63,	77,	120,	29,	34,	-180,	-63,	2,	2,	111,	140,	242,	169,	121,	-16,	15,	-159,	29,	-35,	-151,	62,	155,	-55,	48,	20,	-217,	-123,	-174,	9,	83,	93,	251,	201,	241,	73,	90,	111,	-60,	7,	-33,	8,	131,	-53,	66,	11,	-52,	-101,	-55,	148,	134,	198,	314,	147,	220,	-28,	63,	21,	-114,	-43,	48,	51,	86,	32,	-7,	58,	-32,	-38,	57,	258,	298,	314,	240,	174,	112,	6,	-12,	-81,	-33,	-37,	-83,	21,	-41,	-55,	-13,	-10,	41,	30,	62,	223,	433,	318,	308,	272,	217,	19,	-115,	-66,	-67,	-154,	-111,	-84,	-56,	-49,	-128,	-63,	-89,	-57,	133,	301,	301,	353,	433,	237,	293,	0,	-96,	14,	-60,	-54,	-81,	-213,	-41,	-123,	-51,	-29,	130,	191,	226,	180,	181,	356,	491,	350,	230,	6,	25,	-17,	-64,	18,	11,	-149,	-59,	-182,	-71,	-91,	181,	172,	217,	45,	173,	267,	180,	-115,	70,	-76,	-22,	-54,	-75,	6,	10,	53,	128,	-12,	-231,	-76,	7,	67,	112,	29,	64,	10,	54,	-172,	77,	27,	-166,	-59,	-7,	71,	10,	114,	179,	111,	-93,	-27,	0,	1,	-26,	114,	23,	151,	106,	-230,	-164,	-4,	-63,	-78,	-35,	12,	-29,	59,	134,	-37,	-2,	-64,	-18,	-49,	57,	150,	272,	91,	-37,	-192,	-223,	-35,	-88,	-100,	143,	-31,	7,	179,	105,	-76,	11,	-53,	13,	130,	-29,	85,	184,	120,	-45,	-84,	-159,	22,	-176,	-32,	-70,	113,	178,	287,	-5,	-120,	-44,	-35,	-184,	-113,	10,	155,	201,	89,	96,	-203,	-310,	105,	-151,	67,	-90,	-65,	160,	244,	-1,	-162,	24,	-44,	-158,	-205,	178,	360,	243,	73,	27,	-65,	-347,	40,	-162,	28,	80,	153,	168,	155,	153,	100,	70,	179,	-1,	-62,	266,	276,	275,	86,	21,	-35,	-186,
	-37,	-128,	-260,	126,	-36,	-31,	-64,	-51,	-59,	56,	-125,	72,	-179,	-109,	-203,	-193,	24,	-13,	56,	289,	10,	5,	-222,	80,	-69,	-187,	-302,	-45,	-71,	-8,	53,	-40,	23,	65,	-40,	-27,	-29,	-10,	5,	263,	29,	-64,	-199,	-207,	-243,	-171,	62,	75,	227,	97,	45,	106,	138,	26,	-72,	-149,	-27,	156,	141,	303,	14,	-166,	-252,	-272,	-393,	-78,	-42,	120,	218,	121,	40,	27,	29,	51,	-15,	-66,	0,	-116,	147,	178,	-86,	-76,	-129,	-132,	-19,	22,	78,	88,	27,	75,	47,	26,	7,	-4,	46,	109,	87,	48,	38,	213,	-2,	-96,	48,	34,	25,	105,	70,	-46,	-77,	66,	-35,	-36,	23,	-145,	40,	205,	174,	-21,	-66,	225,	36,	-89,	48,	208,	35,	89,	29,	-36,	-98,	-23,	-114,	92,	-68,	-35,	-17,	18,	259,	6,	-76,	255,	82,	12,	106,	81,	81,	170,	48,	15,	-28,	134,	-64,	23,	29,	117,	110,	52,	228,	-35,	-44,	244,	61,	101,	169,	172,	169,	150,	154,	-44,	-85,	-15,	5,	6,	-71,	20,	198,	266,	269,	52,	-34,	250,	54,	-3,	252,	189,	182,	54,	69,	35,	-23,	3,	-171,	-164,	-86,	-24,	-76,	96,	146,	190,	-66,	263,	-85,	76,	277,	171,	152,	-22,	87,	81,	-103,	-49,	-67,	-143,	6,	-32,	12,	2,	-10,	282,	65,	249,	-35,	9,	179,	154,	-16,	-9,	40,	13,	58,	30,	-54,	50,	19,	-10,	-4,	-99,	-50,	92,	84,	193,	-20,	75,	4,	-33,	-118,	129,	51,	99,	72,	-52,	11,	199,	169,	74,	98,	7,	8,	-37,	-66,	179,	-36,	9,	-50,	-44,	-53,	84,	92,	113,	76,	-68,	25,	31,	59,	103,	35,	8,	-92,	-235,	-227,	-18,	67,	28,	29,	58,	36,	27,	-10,	57,	55,	-43,	-88,	-13,	72,	-44,	-35,	-27,	-237,	-206,	-122,	-40,	-46,	-23,	-3,	-106,	-93,	22,	198,	42,	171,	85,	47,	-15,	30,	-170,	66,	-104,	-273,	-124,	-191,	-61,	24,	55,	97,	-43,	-125,	50,	51,	115,	172,	72,	141,	208,	127,	-40,	66,	-113,	-191,	-282,	-208,	-175,	-4,	27,	-210,	-21,	-128,	-8,	-46,	157,	213,	118,	105,	261,	164,	-58,	-97,	-261,	-398,	-238,	-243,	-204,	65,	-129,	-150,	-132,	-198,	-76,	96,	140,	367,	271,	112,	111,	-101,	-299,	-46,	-487,	-280,	-274,	-201,	-110,	70,	28,	-84,	41,	-28,	-56,	-53,	57,	295,	23,	-73,	17,	120,	-81,	-156,	-282,	-366,	-280,	-126,	-76,
	-94,	-72,	-218,	-134,	-50,	-46,	15,	-20,	38,	-31,	9,	-83,	-7,	93,	-121,	-115,	-7,	-31,	-73,	-25,	-78,	-14,	-27,	-215,	-100,	-22,	-33,	-107,	-34,	-109,	-138,	-92,	-55,	-24,	169,	-198,	-215,	17,	-146,	213,	-12,	-81,	-25,	47,	-77,	-46,	153,	-187,	-163,	15,	-118,	37,	176,	39,	16,	-98,	68,	54,	-23,	72,	92,	-50,	-48,	-166,	-63,	-62,	-118,	-62,	-210,	-232,	-76,	0,	198,	66,	-80,	-94,	-75,	-274,	-113,	-17,	-12,	-166,	-87,	-248,	-73,	-114,	-120,	-162,	-139,	-137,	-107,	138,	188,	254,	264,	146,	70,	-250,	-137,	23,	36,	-60,	-55,	19,	56,	92,	50,	9,	5,	-60,	7,	117,	270,	197,	70,	15,	-40,	-313,	-318,	43,	51,	-61,	-58,	82,	-17,	127,	42,	-20,	5,	-189,	-18,	154,	152,	86,	75,	3,	-151,	-226,	-359,	-13,	-22,	-52,	-38,	119,	72,	63,	-39,	-77,	-25,	-56,	64,	136,	218,	178,	65,	34,	67,	-146,	-434,	-43,	34,	-89,	16,	261,	209,	120,	-73,	-42,	-86,	-27,	-80,	-53,	-14,	105,	118,	71,	22,	-220,	-330,	-159,	-10,	15,	145,	340,	153,	170,	-17,	-124,	-117,	-305,	-139,	-207,	-125,	8,	-69,	-25,	11,	-26,	-238,	-116,	-36,	49,	194,	372,	238,	245,	-14,	-115,	-40,	-138,	-214,	-261,	-193,	-143,	-115,	-127,	-181,	6,	-165,	-97,	38,	107,	186,	304,	175,	147,	-22,	-18,	-19,	-321,	-405,	-327,	-194,	-1,	92,	72,	-13,	62,	-86,	-58,	-25,	36,	75,	47,	155,	76,	52,	-95,	-79,	-257,	-305,	-169,	-176,	103,	42,	172,	211,	183,	49,	58,	-37,	-45,	73,	50,	114,	26,	92,	76,	-33,	-32,	-71,	8,	-20,	32,	219,	306,	299,	237,	-44,	10,	-65,	152,	-70,	-63,	-58,	96,	23,	132,	68,	33,	93,	52,	-67,	76,	138,	316,	135,	-11,	85,	131,	5,	93,	-35,	-200,	-102,	-91,	98,	32,	74,	159,	120,	4,	77,	82,	87,	165,	80,	45,	53,	146,	-27,	54,	-54,	-302,	-216,	-25,	-10,	-41,	86,	223,	191,	83,	107,	112,	186,	236,	-67,	145,	68,	104,	-42,	38,	-47,	-75,	35,	-134,	-61,	-66,	57,	103,	181,	55,	24,	90,	100,	139,	-66,	130,	112,	29,	-23,	62,	-188,	-75,	103,	-51,	-71,	238,	197,	118,	135,	147,	339,	191,	361,	169,	-33,	176,	101,	76,	30,	11,	-115,	-192,	13,	-24,	-195,	130,	200,	-53,	5,	136,	18,	7,	227,	49,	-68,	72,	-3,	8,
	-154,	-154,	-15,	-105,	37,	-79,	61,	-23,	27,	20,	-122,	-1,	-125,	-143,	-87,	37,	-28,	-29,	98,	110,	-117,	-2,	-66,	-53,	-63,	20,	-231,	-81,	139,	-18,	110,	-25,	-117,	0,	82,	-24,	-176,	18,	42,	70,	-26,	36,	144,	118,	-70,	-19,	-79,	118,	176,	80,	127,	-38,	-104,	-102,	-111,	-252,	-283,	-162,	-99,	-24,	-78,	-241,	238,	-103,	5,	-107,	-5,	136,	184,	125,	54,	35,	-147,	-203,	-36,	-157,	-85,	-285,	-191,	192,	-18,	35,	127,	-8,	-98,	-61,	-14,	57,	128,	-46,	193,	102,	-52,	-116,	-272,	-164,	-209,	-153,	-134,	13,	-142,	34,	-5,	-64,	-4,	46,	-92,	28,	109,	195,	112,	-34,	-12,	-167,	-307,	-236,	-65,	-46,	-274,	97,	-47,	127,	-75,	-129,	26,	6,	-14,	30,	55,	13,	1,	9,	-4,	-70,	-151,	-270,	-75,	-19,	-95,	179,	3,	-10,	121,	-21,	-40,	-27,	-69,	-56,	51,	32,	93,	33,	0,	-10,	-54,	-167,	1,	-147,	-48,	172,	-82,	-30,	85,	-175,	-7,	-23,	-22,	34,	49,	63,	82,	205,	55,	51,	-49,	-137,	-65,	-31,	-5,	202,	-17,	-69,	40,	-162,	-82,	-69,	-41,	67,	35,	97,	-22,	140,	182,	115,	117,	-50,	-92,	-19,	-18,	143,	13,	-193,	-47,	-16,	34,	-136,	38,	69,	15,	69,	93,	114,	92,	161,	103,	-18,	-83,	55,	-124,	193,	-67,	-120,	-64,	27,	-100,	-93,	-65,	42,	-54,	116,	-67,	142,	54,	239,	229,	67,	-136,	68,	51,	49,	-40,	-136,	-204,	-116,	-21,	72,	-20,	63,	-5,	-92,	17,	3,	36,	141,	210,	44,	-143,	-198,	-174,	17,	-40,	-117,	-128,	-171,	-30,	162,	126,	-3,	27,	13,	-16,	-95,	0,	-5,	47,	124,	-65,	-250,	19,	194,	-83,	-225,	-99,	-21,	55,	27,	47,	45,	43,	-105,	-18,	-54,	-115,	81,	-43,	18,	31,	-92,	-103,	60,	-106,	-274,	-214,	-83,	22,	77,	-33,	-112,	-88,	-26,	-108,	-72,	19,	10,	56,	138,	-77,	15,	-167,	-10,	-175,	-341,	-233,	-96,	-27,	68,	-114,	-174,	-45,	-72,	-182,	-94,	78,	12,	49,	64,	15,	30,	-28,	-8,	-225,	-243,	-310,	-230,	-135,	-235,	-12,	-32,	1,	-148,	-320,	-189,	117,	332,	132,	178,	84,	-33,	-21,	-17,	-134,	-161,	-69,	-85,	-26,	-96,	-142,	62,	17,	-168,	-225,	-87,	106,	364,	359,	204,	21,	3,	-42,	-20,	-193,	-199,	-63,	-78,	9,	-103,	-61,	161,	-194,	17,	-106,	-171,	8,	284,	397,	231,	275,	-119,	14,	-114,
	33,	-69,	14,	-3,	-24,	-103,	-17,	0,	-54,	-165,	49,	109,	80,	-167,	-42,	-111,	3,	-66,	38,	66,	-138,	33,	-92,	-112,	-73,	-49,	-30,	-300,	-123,	87,	-187,	-21,	-62,	103,	102,	8,	-32,	98,	210,	122,	31,	-7,	206,	142,	86,	-107,	-348,	-195,	-31,	15,	132,	44,	-140,	-27,	-23,	72,	-5,	-173,	94,	-55,	5,	-70,	79,	-17,	-107,	-246,	-328,	-97,	-37,	64,	9,	2,	-55,	-131,	49,	79,	-47,	-100,	168,	114,	-109,	59,	99,	-84,	-110,	-125,	-232,	-109,	11,	-35,	-11,	12,	-2,	-52,	14,	128,	54,	-25,	256,	103,	-88,	95,	-8,	32,	-31,	-87,	-190,	-42,	89,	101,	34,	-58,	-137,	-75,	-44,	162,	142,	117,	229,	48,	-20,	80,	38,	165,	34,	-191,	-71,	-117,	66,	177,	-10,	11,	-153,	-17,	63,	51,	103,	-17,	275,	88,	-34,	34,	28,	77,	60,	12,	-35,	-56,	33,	87,	-106,	-89,	-257,	5,	32,	114,	28,	-38,	176,	152,	-120,	-114,	41,	127,	152,	37,	-97,	-44,	-127,	-65,	-128,	-243,	-240,	-73,	64,	113,	62,	48,	235,	148,	-30,	-150,	74,	108,	216,	15,	-11,	-102,	-51,	26,	-26,	-227,	-83,	51,	76,	190,	127,	-92,	-34,	67,	28,	-94,	64,	187,	222,	-7,	-48,	31,	26,	109,	66,	-33,	5,	98,	31,	42,	-48,	-195,	-84,	96,	-23,	-147,	-91,	87,	118,	82,	45,	42,	119,	144,	134,	126,	159,	45,	-34,	-213,	-250,	-237,	-118,	112,	118,	-83,	-56,	100,	105,	68,	85,	125,	74,	174,	56,	7,	91,	-106,	-89,	-323,	-291,	-16,	-82,	28,	-20,	-142,	-66,	-13,	-35,	81,	14,	155,	130,	160,	151,	-24,	86,	9,	-259,	-253,	-206,	-46,	108,	39,	37,	-76,	-63,	-193,	-46,	41,	90,	219,	159,	98,	1,	-129,	-94,	52,	-176,	-250,	126,	187,	181,	19,	58,	-73,	-65,	-156,	27,	40,	22,	192,	-30,	-166,	-166,	-331,	-242,	-178,	-260,	-127,	143,	162,	60,	1,	-15,	6,	-164,	-41,	96,	181,	46,	26,	-128,	-250,	-273,	-427,	-144,	35,	-37,	64,	200,	177,	-34,	-149,	93,	100,	52,	-168,	40,	48,	-22,	59,	-67,	-299,	-243,	-193,	-2,	209,	68,	14,	115,	18,	-72,	-97,	-86,	-14,	121,	-177,	-236,	20,	-168,	104,	-22,	-157,	6,	-86,	478,	67,	-21,	-34,	-6,	-153,	-85,	-58,	-13,	137,	99,	-91,	-60,	-9,	-196,	-28,	-200,	-140,	-1,	44,	95,	47,	-40,	165,	-199,	-145,	-42,	-76,
